<?xml version="1.0"?>
<opencv_storage>
<stage2>
  <maxWeakCount>9</maxWeakCount>
  <stageThreshold>-1.3276546001434326e+00</stageThreshold>
  <weakClassifiers>
    <_>
      <internalNodes>
        0 -1 70249 2.6675468310713768e-02</internalNodes>
      <leafValues>
        -5.4044014215469360e-01 5.5853563547134399e-01</leafValues></_>
    <_>
      <internalNodes>
        0 -1 12330 -3.6571198701858521e-01</internalNodes>
      <leafValues>
        -9.3442779779434204e-01 2.7145329117774963e-01</leafValues></_>
    <_>
      <internalNodes>
        0 -1 57935 -1.8575208261609077e-02</internalNodes>
      <leafValues>
        4.6659848093986511e-01 -4.1055548191070557e-01</leafValues></_>
    <_>
      <internalNodes>
        0 -1 16 2.8927880339324474e-04</internalNodes>
      <leafValues>
        2.9010546207427979e-01 -6.1035829782485962e-01</leafValues></_>
    <_>
      <internalNodes>
        0 -1 45009 -2.3029711097478867e-02</internalNodes>
      <leafValues>
        7.2622162103652954e-01 -2.4350398778915405e-01</leafValues></_>
    <_>
      <internalNodes>
        0 -1 72388 4.8661599867045879e-03</internalNodes>
      <leafValues>
        -1.9778981804847717e-01 1.1566385030746460e+00</leafValues></_>
    <_>
      <internalNodes>
        0 -1 76154 -4.4372612610459328e-03</internalNodes>
      <leafValues>
        8.2936251163482666e-01 -2.0049293339252472e-01</leafValues></_>
    <_>
      <internalNodes>
        0 -1 53446 -1.1141872964799404e-03</internalNodes>
      <leafValues>
        6.9552063941955566e-01 -2.3513485491275787e-01</leafValues></_>
    <_>
      <internalNodes>
        0 -1 34165 -2.2794641554355621e-03</internalNodes>
      <leafValues>
        -7.8325027227401733e-01 2.1392945945262909e-01</leafValues></_></weakClassifiers></stage2>
</opencv_storage>
