<?xml version="1.0"?>
<opencv_storage>
<stage3>
  <maxWeakCount>11</maxWeakCount>
  <stageThreshold>-1.3975070714950562e+00</stageThreshold>
  <weakClassifiers>
    <_>
      <internalNodes>
        0 -1 74911 -4.0903799235820770e-03</internalNodes>
      <leafValues>
        4.9844408035278320e-01 -4.0342012047767639e-01</leafValues></_>
    <_>
      <internalNodes>
        0 -1 77722 -4.3002389371395111e-02</internalNodes>
      <leafValues>
        -1.2023442983627319e+00 1.9965325295925140e-01</leafValues></_>
    <_>
      <internalNodes>
        0 -1 1210 1.6052182763814926e-02</internalNodes>
      <leafValues>
        -8.6729353666305542e-01 2.4466118216514587e-01</leafValues></_>
    <_>
      <internalNodes>
        0 -1 72754 -1.9506227970123291e-01</internalNodes>
      <leafValues>
        -1.1202168464660645e+00 1.9565986096858978e-01</leafValues></_>
    <_>
      <internalNodes>
        0 -1 58446 -3.0866493470966816e-03</internalNodes>
      <leafValues>
        8.0023103952407837e-01 -2.2206707298755646e-01</leafValues></_>
    <_>
      <internalNodes>
        0 -1 8457 6.6636539995670319e-03</internalNodes>
      <leafValues>
        -4.1770967841148376e-01 3.5893908143043518e-01</leafValues></_>
    <_>
      <internalNodes>
        0 -1 75389 -9.7544137388467789e-03</internalNodes>
      <leafValues>
        -9.5741659402847290e-01 1.7388622462749481e-01</leafValues></_>
    <_>
      <internalNodes>
        0 -1 49781 -2.9765712097287178e-03</internalNodes>
      <leafValues>
        7.2818470001220703e-01 -1.7448569834232330e-01</leafValues></_>
    <_>
      <internalNodes>
        0 -1 57157 -2.6139868423342705e-03</internalNodes>
      <leafValues>
        9.4023883342742920e-01 -1.1777736991643906e-01</leafValues></_>
    <_>
      <internalNodes>
        0 -1 61267 -5.8226035907864571e-03</internalNodes>
      <leafValues>
        3.1372532248497009e-01 -4.8620700836181641e-01</leafValues></_>
    <_>
      <internalNodes>
        0 -1 68923 -2.4946938455104828e-01</internalNodes>
      <leafValues>
        -1.1894733905792236e+00 1.2624365091323853e-01</leafValues></_></weakClassifiers></stage3>
</opencv_storage>
