<?xml version="1.0"?>
<opencv_storage>
<stage7>
  <maxWeakCount>22</maxWeakCount>
  <stageThreshold>-1.4602576494216919e+00</stageThreshold>
  <weakClassifiers>
    <_>
      <internalNodes>
        0 -1 72499 4.4454548507928848e-02</internalNodes>
      <leafValues>
        -3.8426321744918823e-01 4.2774310708045959e-01</leafValues></_>
    <_>
      <internalNodes>
        0 -1 58350 -1.5735485358163714e-03</internalNodes>
      <leafValues>
        5.9122085571289063e-01 -1.7690937221050262e-01</leafValues></_>
    <_>
      <internalNodes>
        0 -1 42290 -9.5339529216289520e-02</internalNodes>
      <leafValues>
        5.3944006562232971e-02 -1.1306427717208862e+00</leafValues></_>
    <_>
      <internalNodes>
        0 -1 78411 -9.5069576054811478e-03</internalNodes>
      <leafValues>
        -5.2498793601989746e-01 2.3350948095321655e-01</leafValues></_>
    <_>
      <internalNodes>
        0 -1 78136 5.2370917983353138e-03</internalNodes>
      <leafValues>
        1.5222735702991486e-01 -6.4020514488220215e-01</leafValues></_>
    <_>
      <internalNodes>
        0 -1 65331 2.8103520162403584e-03</internalNodes>
      <leafValues>
        -1.5581171214580536e-01 7.1217799186706543e-01</leafValues></_>
    <_>
      <internalNodes>
        0 -1 78301 2.6638344861567020e-03</internalNodes>
      <leafValues>
        1.3955856859683990e-01 -6.3200628757476807e-01</leafValues></_>
    <_>
      <internalNodes>
        0 -1 5737 -8.3388378843665123e-03</internalNodes>
      <leafValues>
        4.2040604352951050e-01 -1.8012210726737976e-01</leafValues></_>
    <_>
      <internalNodes>
        0 -1 2759 -4.1594564914703369e-02</internalNodes>
      <leafValues>
        -4.0693339705467224e-01 1.9220028817653656e-01</leafValues></_>
    <_>
      <internalNodes>
        0 -1 65063 1.0890648700296879e-03</internalNodes>
      <leafValues>
        -1.6750705242156982e-01 4.6839055418968201e-01</leafValues></_>
    <_>
      <internalNodes>
        0 -1 5196 -7.6005995273590088e-02</internalNodes>
      <leafValues>
        2.9587271809577942e-01 -2.6893517374992371e-01</leafValues></_>
    <_>
      <internalNodes>
        0 -1 28474 7.4541580397635698e-04</internalNodes>
      <leafValues>
        -4.5198810100555420e-01 1.5701448917388916e-01</leafValues></_>
    <_>
      <internalNodes>
        0 -1 55256 2.9193744063377380e-02</internalNodes>
      <leafValues>
        -2.0609773695468903e-01 3.8149178028106689e-01</leafValues></_>
    <_>
      <internalNodes>
        0 -1 51275 1.6033162828534842e-03</internalNodes>
      <leafValues>
        -2.1932467818260193e-01 3.5869437456130981e-01</leafValues></_>
    <_>
      <internalNodes>
        0 -1 33207 4.9345511943101883e-03</internalNodes>
      <leafValues>
        -1.4471559226512909e-01 5.5733144283294678e-01</leafValues></_>
    <_>
      <internalNodes>
        0 -1 34294 4.4988412410020828e-02</internalNodes>
      <leafValues>
        7.0252865552902222e-02 -1.8911162614822388e+00</leafValues></_>
    <_>
      <internalNodes>
        0 -1 51203 -1.8473188579082489e-01</internalNodes>
      <leafValues>
        8.5873752832412720e-02 -9.5291197299957275e-01</leafValues></_>
    <_>
      <internalNodes>
        0 -1 7687 1.0962371015921235e-03</internalNodes>
      <leafValues>
        1.0577455908060074e-01 -6.9780182838439941e-01</leafValues></_>
    <_>
      <internalNodes>
        0 -1 56913 7.4981263605877757e-04</internalNodes>
      <leafValues>
        -2.0595757663249969e-01 3.2271713018417358e-01</leafValues></_>
    <_>
      <internalNodes>
        0 -1 68435 -1.9202480325475335e-03</internalNodes>
      <leafValues>
        -1.0026827454566956e-01 9.2438358068466187e-01</leafValues></_>
    <_>
      <internalNodes>
        0 -1 1046 2.0795634388923645e-01</internalNodes>
      <leafValues>
        -2.2080342471599579e-01 3.9984536170959473e-01</leafValues></_>
    <_>
      <internalNodes>
        0 -1 15517 3.7076883018016815e-03</internalNodes>
      <leafValues>
        1.9646343588829041e-01 -3.6620911955833435e-01</leafValues></_></weakClassifiers></stage7>
</opencv_storage>
