<?xml version="1.0"?>
<opencv_storage>
<cascade>
  <stageType>BOOST</stageType>
  <featureType>HAAR</featureType>
  <height>20</height>
  <width>20</width>
  <stageParams>
    <boostType>RAB</boostType>
    <minHitRate>9.9500000476837158e-01</minHitRate>
    <maxFalseAlarm>5.0000000000000000e-01</maxFalseAlarm>
    <weightTrimRate>9.4999999999999996e-01</weightTrimRate>
    <maxDepth>1</maxDepth>
    <maxWeakCount>100</maxWeakCount></stageParams>
  <featureParams>
    <maxCatCount>0</maxCatCount>
    <featSize>1</featSize>
    <mode>BASIC</mode></featureParams>
  <stageNum>11</stageNum>
  <stages>
    <!-- stage 0 -->
    <_>
      <maxWeakCount>3</maxWeakCount>
      <stageThreshold>-2.1131088733673096e+00</stageThreshold>
      <weakClassifiers>
        <_>
          <internalNodes>
            0 -1 51 -1.1612646281719208e-01</internalNodes>
          <leafValues>
            -1.5247700214385986e+00 5.9493583440780640e-01</leafValues></_>
        <_>
          <internalNodes>
            0 -1 8 3.3572886139154434e-02</internalNodes>
          <leafValues>
            -8.4149652719497681e-01 4.4987890124320984e-01</leafValues></_>
        <_>
          <internalNodes>
            0 -1 26 -3.6785131692886353e-01</internalNodes>
          <leafValues>
            -1.9715688228607178e+00 2.5315758585929871e-01</leafValues></_></weakClassifiers></_>
    <!-- stage 1 -->
    <_>
      <maxWeakCount>6</maxWeakCount>
      <stageThreshold>-1.4111431837081909e+00</stageThreshold>
      <weakClassifiers>
        <_>
          <internalNodes>
            0 -1 37 1.7532806843519211e-02</internalNodes>
          <leafValues>
            -1.3036924600601196e+00 3.5410797595977783e-01</leafValues></_>
        <_>
          <internalNodes>
            0 -1 23 -2.0517177879810333e-02</internalNodes>
          <leafValues>
            7.3465549945831299e-01 -4.6329724788665771e-01</leafValues></_>
        <_>
          <internalNodes>
            0 -1 91 9.1638136655092239e-04</internalNodes>
          <leafValues>
            -3.0567473173141479e-01 1.0812449455261230e+00</leafValues></_>
        <_>
          <internalNodes>
            0 -1 94 -1.0006588418036699e-03</internalNodes>
          <leafValues>
            8.8742446899414063e-01 -3.1576392054557800e-01</leafValues></_>
        <_>
          <internalNodes>
            0 -1 77 1.5486991032958031e-03</internalNodes>
          <leafValues>
            -3.4818309545516968e-01 5.1538872718811035e-01</leafValues></_>
        <_>
          <internalNodes>
            0 -1 62 -1.6415262594819069e-02</internalNodes>
          <leafValues>
            4.6189650893211365e-01 -4.4847682118415833e-01</leafValues></_></weakClassifiers></_>
    <!-- stage 2 -->
    <_>
      <maxWeakCount>9</maxWeakCount>
      <stageThreshold>-1.3276546001434326e+00</stageThreshold>
      <weakClassifiers>
        <_>
          <internalNodes>
            0 -1 121 2.6675468310713768e-02</internalNodes>
          <leafValues>
            -5.4044014215469360e-01 5.5853563547134399e-01</leafValues></_>
        <_>
          <internalNodes>
            0 -1 41 -3.6571198701858521e-01</internalNodes>
          <leafValues>
            -9.3442779779434204e-01 2.7145329117774963e-01</leafValues></_>
        <_>
          <internalNodes>
            0 -1 93 -1.8575208261609077e-02</internalNodes>
          <leafValues>
            4.6659848093986511e-01 -4.1055548191070557e-01</leafValues></_>
        <_>
          <internalNodes>
            0 -1 1 2.8927880339324474e-04</internalNodes>
          <leafValues>
            2.9010546207427979e-01 -6.1035829782485962e-01</leafValues></_>
        <_>
          <internalNodes>
            0 -1 78 -2.3029711097478867e-02</internalNodes>
          <leafValues>
            7.2622162103652954e-01 -2.4350398778915405e-01</leafValues></_>
        <_>
          <internalNodes>
            0 -1 130 4.8661599867045879e-03</internalNodes>
          <leafValues>
            -1.9778981804847717e-01 1.1566385030746460e+00</leafValues></_>
        <_>
          <internalNodes>
            0 -1 144 -4.4372612610459328e-03</internalNodes>
          <leafValues>
            8.2936251163482666e-01 -2.0049293339252472e-01</leafValues></_>
        <_>
          <internalNodes>
            0 -1 86 -1.1141872964799404e-03</internalNodes>
          <leafValues>
            6.9552063941955566e-01 -2.3513485491275787e-01</leafValues></_>
        <_>
          <internalNodes>
            0 -1 64 -2.2794641554355621e-03</internalNodes>
          <leafValues>
            -7.8325027227401733e-01 2.1392945945262909e-01</leafValues></_></weakClassifiers></_>
    <!-- stage 3 -->
    <_>
      <maxWeakCount>11</maxWeakCount>
      <stageThreshold>-1.3975070714950562e+00</stageThreshold>
      <weakClassifiers>
        <_>
          <internalNodes>
            0 -1 138 -4.0903799235820770e-03</internalNodes>
          <leafValues>
            4.9844408035278320e-01 -4.0342012047767639e-01</leafValues></_>
        <_>
          <internalNodes>
            0 -1 147 -4.3002389371395111e-02</internalNodes>
          <leafValues>
            -1.2023442983627319e+00 1.9965325295925140e-01</leafValues></_>
        <_>
          <internalNodes>
            0 -1 13 1.6052182763814926e-02</internalNodes>
          <leafValues>
            -8.6729353666305542e-01 2.4466118216514587e-01</leafValues></_>
        <_>
          <internalNodes>
            0 -1 133 -1.9506227970123291e-01</internalNodes>
          <leafValues>
            -1.1202168464660645e+00 1.9565986096858978e-01</leafValues></_>
        <_>
          <internalNodes>
            0 -1 97 -3.0866493470966816e-03</internalNodes>
          <leafValues>
            8.0023103952407837e-01 -2.2206707298755646e-01</leafValues></_>
        <_>
          <internalNodes>
            0 -1 39 6.6636539995670319e-03</internalNodes>
          <leafValues>
            -4.1770967841148376e-01 3.5893908143043518e-01</leafValues></_>
        <_>
          <internalNodes>
            0 -1 142 -9.7544137388467789e-03</internalNodes>
          <leafValues>
            -9.5741659402847290e-01 1.7388622462749481e-01</leafValues></_>
        <_>
          <internalNodes>
            0 -1 82 -2.9765712097287178e-03</internalNodes>
          <leafValues>
            7.2818470001220703e-01 -1.7448569834232330e-01</leafValues></_>
        <_>
          <internalNodes>
            0 -1 92 -2.6139868423342705e-03</internalNodes>
          <leafValues>
            9.4023883342742920e-01 -1.1777736991643906e-01</leafValues></_>
        <_>
          <internalNodes>
            0 -1 100 -5.8226035907864571e-03</internalNodes>
          <leafValues>
            3.1372532248497009e-01 -4.8620700836181641e-01</leafValues></_>
        <_>
          <internalNodes>
            0 -1 118 -2.4946938455104828e-01</internalNodes>
          <leafValues>
            -1.1894733905792236e+00 1.2624365091323853e-01</leafValues></_></weakClassifiers></_>
    <!-- stage 4 -->
    <_>
      <maxWeakCount>14</maxWeakCount>
      <stageThreshold>-1.4654018878936768e+00</stageThreshold>
      <weakClassifiers>
        <_>
          <internalNodes>
            0 -1 119 5.0595309585332870e-02</internalNodes>
          <leafValues>
            -4.3328854441642761e-01 4.9212402105331421e-01</leafValues></_>
        <_>
          <internalNodes>
            0 -1 37 8.9458841830492020e-03</internalNodes>
          <leafValues>
            -1.1349867582321167e+00 1.6185323894023895e-01</leafValues></_>
        <_>
          <internalNodes>
            0 -1 48 -6.0820544604212046e-04</internalNodes>
          <leafValues>
            3.4551116824150085e-01 -4.3382120132446289e-01</leafValues></_>
        <_>
          <internalNodes>
            0 -1 55 7.6927170157432556e-03</internalNodes>
          <leafValues>
            -1.9267454743385315e-01 9.1522568464279175e-01</leafValues></_>
        <_>
          <internalNodes>
            0 -1 53 -1.2811760604381561e-01</internalNodes>
          <leafValues>
            1.2911483645439148e-01 -8.7246114015579224e-01</leafValues></_>
        <_>
          <internalNodes>
            0 -1 139 2.5968845002353191e-03</internalNodes>
          <leafValues>
            -1.8936493992805481e-01 5.5653351545333862e-01</leafValues></_>
        <_>
          <internalNodes>
            0 -1 101 1.2953616678714752e-01</internalNodes>
          <leafValues>
            9.8575972020626068e-02 -1.8440674543380737e+00</leafValues></_>
        <_>
          <internalNodes>
            0 -1 153 -1.3447663746774197e-02</internalNodes>
          <leafValues>
            -7.1829366683959961e-01 1.6574631631374359e-01</leafValues></_>
        <_>
          <internalNodes>
            0 -1 58 -5.5142968893051147e-01</internalNodes>
          <leafValues>
            -6.3196051120758057e-01 1.4533308148384094e-01</leafValues></_>
        <_>
          <internalNodes>
            0 -1 134 -5.1326295360922813e-03</internalNodes>
          <leafValues>
            6.4590245485305786e-01 -1.7496508359909058e-01</leafValues></_>
        <_>
          <internalNodes>
            0 -1 18 -9.7979873418807983e-02</internalNodes>
          <leafValues>
            3.7295809388160706e-01 -2.8653046488761902e-01</leafValues></_>
        <_>
          <internalNodes>
            0 -1 20 -5.4720775224268436e-03</internalNodes>
          <leafValues>
            -7.7614533901214600e-01 1.4440248906612396e-01</leafValues></_>
        <_>
          <internalNodes>
            0 -1 21 -4.9312403425574303e-03</internalNodes>
          <leafValues>
            1.0128249973058701e-01 -1.6791507005691528e+00</leafValues></_>
        <_>
          <internalNodes>
            0 -1 44 1.8184885382652283e-02</internalNodes>
          <leafValues>
            -5.0213378667831421e-01 1.8297438323497772e-01</leafValues></_></weakClassifiers></_>
    <!-- stage 5 -->
    <_>
      <maxWeakCount>15</maxWeakCount>
      <stageThreshold>-1.4148120880126953e+00</stageThreshold>
      <weakClassifiers>
        <_>
          <internalNodes>
            0 -1 111 7.1305066347122192e-02</internalNodes>
          <leafValues>
            -4.0249490737915039e-01 4.0919402241706848e-01</leafValues></_>
        <_>
          <internalNodes>
            0 -1 10 1.5381751582026482e-03</internalNodes>
          <leafValues>
            1.5869572758674622e-01 -6.9005781412124634e-01</leafValues></_>
        <_>
          <internalNodes>
            0 -1 9 -8.3222091197967529e-03</internalNodes>
          <leafValues>
            -1.4202411174774170e+00 1.1782206594944000e-01</leafValues></_>
        <_>
          <internalNodes>
            0 -1 66 -1.1314900591969490e-02</internalNodes>
          <leafValues>
            4.4685882329940796e-01 -2.3953913152217865e-01</leafValues></_>
        <_>
          <internalNodes>
            0 -1 113 3.1369891948997974e-03</internalNodes>
          <leafValues>
            -1.4354534447193146e-01 9.6999222040176392e-01</leafValues></_>
        <_>
          <internalNodes>
            0 -1 52 -1.2617185711860657e-01</internalNodes>
          <leafValues>
            -8.6896115541458130e-01 1.1875689029693604e-01</leafValues></_>
        <_>
          <internalNodes>
            0 -1 63 4.4169919565320015e-03</internalNodes>
          <leafValues>
            -1.1815654486417770e-01 7.7235531806945801e-01</leafValues></_>
        <_>
          <internalNodes>
            0 -1 126 3.8536516949534416e-03</internalNodes>
          <leafValues>
            1.3005813956260681e-01 -9.7681421041488647e-01</leafValues></_>
        <_>
          <internalNodes>
            0 -1 83 -1.1880956590175629e-01</internalNodes>
          <leafValues>
            -1.7298852205276489e+00 7.2361424565315247e-02</leafValues></_>
        <_>
          <internalNodes>
            0 -1 19 6.4415521919727325e-02</internalNodes>
          <leafValues>
            1.1020416021347046e-01 -1.1446962356567383e+00</leafValues></_>
        <_>
          <internalNodes>
            0 -1 128 8.0393105745315552e-03</internalNodes>
          <leafValues>
            -1.4689670503139496e-01 6.6111588478088379e-01</leafValues></_>
        <_>
          <internalNodes>
            0 -1 35 1.9549296703189611e-03</internalNodes>
          <leafValues>
            1.8616503477096558e-01 -4.3797081708908081e-01</leafValues></_>
        <_>
          <internalNodes>
            0 -1 137 -9.4747086986899376e-03</internalNodes>
          <leafValues>
            -1.0139179229736328e+00 9.0464845299720764e-02</leafValues></_>
        <_>
          <internalNodes>
            0 -1 152 3.4047407098114491e-03</internalNodes>
          <leafValues>
            1.5236854553222656e-01 -5.2495807409286499e-01</leafValues></_>
        <_>
          <internalNodes>
            0 -1 98 -1.4149118214845657e-03</internalNodes>
          <leafValues>
            5.0337249040603638e-01 -1.6009587049484253e-01</leafValues></_></weakClassifiers></_>
    <!-- stage 6 -->
    <_>
      <maxWeakCount>20</maxWeakCount>
      <stageThreshold>-1.4393159151077271e+00</stageThreshold>
      <weakClassifiers>
        <_>
          <internalNodes>
            0 -1 122 6.0141757130622864e-03</internalNodes>
          <leafValues>
            -3.1459665298461914e-01 4.9570295214653015e-01</leafValues></_>
        <_>
          <internalNodes>
            0 -1 7 -2.5266418233513832e-03</internalNodes>
          <leafValues>
            2.3925729095935822e-01 -4.4347068667411804e-01</leafValues></_>
        <_>
          <internalNodes>
            0 -1 135 7.6051000505685806e-03</internalNodes>
          <leafValues>
            1.3021641969680786e-01 -7.8558099269866943e-01</leafValues></_>
        <_>
          <internalNodes>
            0 -1 68 -6.7002866417169571e-03</internalNodes>
          <leafValues>
            6.9064092636108398e-01 -1.2251284718513489e-01</leafValues></_>
        <_>
          <internalNodes>
            0 -1 140 -1.1270774994045496e-03</internalNodes>
          <leafValues>
            -6.6340976953506470e-01 1.1937932670116425e-01</leafValues></_>
        <_>
          <internalNodes>
            0 -1 38 4.0525604039430618e-02</internalNodes>
          <leafValues>
            -1.1460935324430466e-01 6.3872903585433960e-01</leafValues></_>
        <_>
          <internalNodes>
            0 -1 12 4.1564844548702240e-02</internalNodes>
          <leafValues>
            -6.3701367378234863e-01 1.3301335275173187e-01</leafValues></_>
        <_>
          <internalNodes>
            0 -1 60 2.5042851921170950e-03</internalNodes>
          <leafValues>
            -1.9850894808769226e-01 4.4972321391105652e-01</leafValues></_>
        <_>
          <internalNodes>
            0 -1 123 4.8037124797701836e-03</internalNodes>
          <leafValues>
            -2.0656397938728333e-01 4.2259141802787781e-01</leafValues></_>
        <_>
          <internalNodes>
            0 -1 4 4.1275009512901306e-02</internalNodes>
          <leafValues>
            -1.5658216178417206e-01 6.0906547307968140e-01</leafValues></_>
        <_>
          <internalNodes>
            0 -1 104 -1.2223690282553434e-03</internalNodes>
          <leafValues>
            -7.3607081174850464e-01 1.1610782146453857e-01</leafValues></_>
        <_>
          <internalNodes>
            0 -1 110 6.7932158708572388e-03</internalNodes>
          <leafValues>
            -1.0315541177988052e-01 7.8315484523773193e-01</leafValues></_>
        <_>
          <internalNodes>
            0 -1 97 -5.1570176146924496e-03</internalNodes>
          <leafValues>
            6.4573282003402710e-01 -1.2454014271497726e-01</leafValues></_>
        <_>
          <internalNodes>
            0 -1 99 -2.8957647085189819e-01</internalNodes>
          <leafValues>
            -1.1210510730743408e+00 8.7937481701374054e-02</leafValues></_>
        <_>
          <internalNodes>
            0 -1 92 -3.7497614976018667e-03</internalNodes>
          <leafValues>
            8.9953023195266724e-01 -1.0005655139684677e-01</leafValues></_>
        <_>
          <internalNodes>
            0 -1 127 -2.2148471325635910e-02</internalNodes>
          <leafValues>
            -9.3743580579757690e-01 1.1559769511222839e-01</leafValues></_>
        <_>
          <internalNodes>
            0 -1 57 1.6818024218082428e-02</internalNodes>
          <leafValues>
            -3.6558696627616882e-01 2.3232363164424896e-01</leafValues></_>
        <_>
          <internalNodes>
            0 -1 150 1.6761673614382744e-03</internalNodes>
          <leafValues>
            1.1027456820011139e-01 -7.1692687273025513e-01</leafValues></_>
        <_>
          <internalNodes>
            0 -1 46 7.3148474097251892e-02</internalNodes>
          <leafValues>
            -1.0962965339422226e-01 7.3567080497741699e-01</leafValues></_>
        <_>
          <internalNodes>
            0 -1 59 -5.2377160638570786e-02</internalNodes>
          <leafValues>
            4.0277266502380371e-01 -2.0329782366752625e-01</leafValues></_></weakClassifiers></_>
    <!-- stage 7 -->
    <_>
      <maxWeakCount>22</maxWeakCount>
      <stageThreshold>-1.4602576494216919e+00</stageThreshold>
      <weakClassifiers>
        <_>
          <internalNodes>
            0 -1 131 4.4454548507928848e-02</internalNodes>
          <leafValues>
            -3.8426321744918823e-01 4.2774310708045959e-01</leafValues></_>
        <_>
          <internalNodes>
            0 -1 96 -1.5735485358163714e-03</internalNodes>
          <leafValues>
            5.9122085571289063e-01 -1.7690937221050262e-01</leafValues></_>
        <_>
          <internalNodes>
            0 -1 73 -9.5339529216289520e-02</internalNodes>
          <leafValues>
            5.3944006562232971e-02 -1.1306427717208862e+00</leafValues></_>
        <_>
          <internalNodes>
            0 -1 157 -9.5069576054811478e-03</internalNodes>
          <leafValues>
            -5.2498793601989746e-01 2.3350948095321655e-01</leafValues></_>
        <_>
          <internalNodes>
            0 -1 149 5.2370917983353138e-03</internalNodes>
          <leafValues>
            1.5222735702991486e-01 -6.4020514488220215e-01</leafValues></_>
        <_>
          <internalNodes>
            0 -1 106 2.8103520162403584e-03</internalNodes>
          <leafValues>
            -1.5581171214580536e-01 7.1217799186706543e-01</leafValues></_>
        <_>
          <internalNodes>
            0 -1 151 2.6638344861567020e-03</internalNodes>
          <leafValues>
            1.3955856859683990e-01 -6.3200628757476807e-01</leafValues></_>
        <_>
          <internalNodes>
            0 -1 28 -8.3388378843665123e-03</internalNodes>
          <leafValues>
            4.2040604352951050e-01 -1.8012210726737976e-01</leafValues></_>
        <_>
          <internalNodes>
            0 -1 16 -4.1594564914703369e-02</internalNodes>
          <leafValues>
            -4.0693339705467224e-01 1.9220028817653656e-01</leafValues></_>
        <_>
          <internalNodes>
            0 -1 105 1.0890648700296879e-03</internalNodes>
          <leafValues>
            -1.6750705242156982e-01 4.6839055418968201e-01</leafValues></_>
        <_>
          <internalNodes>
            0 -1 25 -7.6005995273590088e-02</internalNodes>
          <leafValues>
            2.9587271809577942e-01 -2.6893517374992371e-01</leafValues></_>
        <_>
          <internalNodes>
            0 -1 56 7.4541580397635698e-04</internalNodes>
          <leafValues>
            -4.5198810100555420e-01 1.5701448917388916e-01</leafValues></_>
        <_>
          <internalNodes>
            0 -1 89 2.9193744063377380e-02</internalNodes>
          <leafValues>
            -2.0609773695468903e-01 3.8149178028106689e-01</leafValues></_>
        <_>
          <internalNodes>
            0 -1 85 1.6033162828534842e-03</internalNodes>
          <leafValues>
            -2.1932467818260193e-01 3.5869437456130981e-01</leafValues></_>
        <_>
          <internalNodes>
            0 -1 61 4.9345511943101883e-03</internalNodes>
          <leafValues>
            -1.4471559226512909e-01 5.5733144283294678e-01</leafValues></_>
        <_>
          <internalNodes>
            0 -1 65 4.4988412410020828e-02</internalNodes>
          <leafValues>
            7.0252865552902222e-02 -1.8911162614822388e+00</leafValues></_>
        <_>
          <internalNodes>
            0 -1 84 -1.8473188579082489e-01</internalNodes>
          <leafValues>
            8.5873752832412720e-02 -9.5291197299957275e-01</leafValues></_>
        <_>
          <internalNodes>
            0 -1 36 1.0962371015921235e-03</internalNodes>
          <leafValues>
            1.0577455908060074e-01 -6.9780182838439941e-01</leafValues></_>
        <_>
          <internalNodes>
            0 -1 91 7.4981263605877757e-04</internalNodes>
          <leafValues>
            -2.0595757663249969e-01 3.2271713018417358e-01</leafValues></_>
        <_>
          <internalNodes>
            0 -1 112 -1.9202480325475335e-03</internalNodes>
          <leafValues>
            -1.0026827454566956e-01 9.2438358068466187e-01</leafValues></_>
        <_>
          <internalNodes>
            0 -1 11 2.0795634388923645e-01</internalNodes>
          <leafValues>
            -2.2080342471599579e-01 3.9984536170959473e-01</leafValues></_>
        <_>
          <internalNodes>
            0 -1 49 3.7076883018016815e-03</internalNodes>
          <leafValues>
            1.9646343588829041e-01 -3.6620911955833435e-01</leafValues></_></weakClassifiers></_>
    <!-- stage 8 -->
    <_>
      <maxWeakCount>20</maxWeakCount>
      <stageThreshold>-1.3147574663162231e+00</stageThreshold>
      <weakClassifiers>
        <_>
          <internalNodes>
            0 -1 34 -1.5120017528533936e-01</internalNodes>
          <leafValues>
            4.6770125627517700e-01 -4.0060567855834961e-01</leafValues></_>
        <_>
          <internalNodes>
            0 -1 138 -4.4178166426718235e-03</internalNodes>
          <leafValues>
            3.8938760757446289e-01 -2.1214024722576141e-01</leafValues></_>
        <_>
          <internalNodes>
            0 -1 33 -3.8616962730884552e-02</internalNodes>
          <leafValues>
            -1.3428022861480713e+00 7.8064605593681335e-02</leafValues></_>
        <_>
          <internalNodes>
            0 -1 72 -1.9916219171136618e-03</internalNodes>
          <leafValues>
            2.3240548372268677e-01 -3.0877724289894104e-01</leafValues></_>
        <_>
          <internalNodes>
            0 -1 109 4.1889166459441185e-04</internalNodes>
          <leafValues>
            -2.3337867856025696e-01 2.6568770408630371e-01</leafValues></_>
        <_>
          <internalNodes>
            0 -1 129 -1.4461056888103485e-01</internalNodes>
          <leafValues>
            -5.8173924684524536e-01 1.1738824844360352e-01</leafValues></_>
        <_>
          <internalNodes>
            0 -1 12 4.4715858995914459e-02</internalNodes>
          <leafValues>
            -5.8783167600631714e-01 1.6660530865192413e-01</leafValues></_>
        <_>
          <internalNodes>
            0 -1 141 4.0981778874993324e-03</internalNodes>
          <leafValues>
            7.7414952218532562e-02 -9.0802329778671265e-01</leafValues></_>
        <_>
          <internalNodes>
            0 -1 30 -9.5187425613403320e-02</internalNodes>
          <leafValues>
            1.4335390925407410e-01 -5.2867615222930908e-01</leafValues></_>
        <_>
          <internalNodes>
            0 -1 22 -2.4483594298362732e-01</internalNodes>
          <leafValues>
            3.7879052758216858e-01 -2.1116523444652557e-01</leafValues></_>
        <_>
          <internalNodes>
            0 -1 117 1.5424545854330063e-02</internalNodes>
          <leafValues>
            -2.2973637282848358e-01 3.6027076840400696e-01</leafValues></_>
        <_>
          <internalNodes>
            0 -1 156 -4.0636090561747551e-03</internalNodes>
          <leafValues>
            -7.7492612600326538e-01 9.0844437479972839e-02</leafValues></_>
        <_>
          <internalNodes>
            0 -1 6 -3.8472223095595837e-03</internalNodes>
          <leafValues>
            -6.8458151817321777e-01 1.1945355683565140e-01</leafValues></_>
        <_>
          <internalNodes>
            0 -1 143 7.8289071097970009e-04</internalNodes>
          <leafValues>
            -2.6738247275352478e-01 2.3638665676116943e-01</leafValues></_>
        <_>
          <internalNodes>
            0 -1 81 -1.5031653642654419e-01</internalNodes>
          <leafValues>
            -9.5177596807479858e-01 6.2222283333539963e-02</leafValues></_>
        <_>
          <internalNodes>
            0 -1 14 2.0060694217681885e-01</internalNodes>
          <leafValues>
            6.1205368489027023e-02 -2.2414464950561523e+00</leafValues></_>
        <_>
          <internalNodes>
            0 -1 116 6.2843374907970428e-03</internalNodes>
          <leafValues>
            8.0682262778282166e-02 -9.3404006958007813e-01</leafValues></_>
        <_>
          <internalNodes>
            0 -1 54 5.6280945427715778e-03</internalNodes>
          <leafValues>
            -1.0155065357685089e-01 7.1564471721649170e-01</leafValues></_>
        <_>
          <internalNodes>
            0 -1 102 4.3918946757912636e-03</internalNodes>
          <leafValues>
            -1.1618451774120331e-01 5.3691315650939941e-01</leafValues></_>
        <_>
          <internalNodes>
            0 -1 67 6.7255467176437378e-02</internalNodes>
          <leafValues>
            7.9049855470657349e-02 -8.6954760551452637e-01</leafValues></_></weakClassifiers></_>
    <!-- stage 9 -->
    <_>
      <maxWeakCount>22</maxWeakCount>
      <stageThreshold>-1.3283815383911133e+00</stageThreshold>
      <weakClassifiers>
        <_>
          <internalNodes>
            0 -1 32 -1.6939200460910797e-02</internalNodes>
          <leafValues>
            5.2378010749816895e-01 -3.5414162278175354e-01</leafValues></_>
        <_>
          <internalNodes>
            0 -1 114 -5.5648619309067726e-03</internalNodes>
          <leafValues>
            5.5251955986022949e-01 -1.5129472315311432e-01</leafValues></_>
        <_>
          <internalNodes>
            0 -1 43 1.5628125518560410e-02</internalNodes>
          <leafValues>
            -5.1607227325439453e-01 1.2432699650526047e-01</leafValues></_>
        <_>
          <internalNodes>
            0 -1 132 4.1246912442147732e-03</internalNodes>
          <leafValues>
            -9.5543652772903442e-02 8.0171781778335571e-01</leafValues></_>
        <_>
          <internalNodes>
            0 -1 0 -4.7189174802042544e-04</internalNodes>
          <leafValues>
            1.8265807628631592e-01 -3.5247355699539185e-01</leafValues></_>
        <_>
          <internalNodes>
            0 -1 47 1.6153098549693823e-03</internalNodes>
          <leafValues>
            9.8711103200912476e-02 -1.0322763919830322e+00</leafValues></_>
        <_>
          <internalNodes>
            0 -1 69 4.0920231491327286e-02</internalNodes>
          <leafValues>
            6.9139204919338226e-02 -9.7575682401657104e-01</leafValues></_>
        <_>
          <internalNodes>
            0 -1 146 -1.4045024290680885e-03</internalNodes>
          <leafValues>
            -6.7955744266510010e-01 9.7966976463794708e-02</leafValues></_>
        <_>
          <internalNodes>
            0 -1 88 2.4429027689620852e-04</internalNodes>
          <leafValues>
            -2.9979631304740906e-01 1.8611508607864380e-01</leafValues></_>
        <_>
          <internalNodes>
            0 -1 17 -9.2969067394733429e-02</internalNodes>
          <leafValues>
            3.5586944222450256e-01 -1.6819566488265991e-01</leafValues></_>
        <_>
          <internalNodes>
            0 -1 155 -6.8894252181053162e-03</internalNodes>
          <leafValues>
            -5.4269707202911377e-01 1.2721587717533112e-01</leafValues></_>
        <_>
          <internalNodes>
            0 -1 86 -9.2010863590985537e-04</internalNodes>
          <leafValues>
            3.6111390590667725e-01 -1.6346348822116852e-01</leafValues></_>
        <_>
          <internalNodes>
            0 -1 45 -1.9992209970951080e-02</internalNodes>
          <leafValues>
            2.5062587857246399e-01 -2.4755701422691345e-01</leafValues></_>
        <_>
          <internalNodes>
            0 -1 103 4.9158044159412384e-02</internalNodes>
          <leafValues>
            6.3102364540100098e-02 -1.1771626472473145e+00</leafValues></_>
        <_>
          <internalNodes>
            0 -1 75 -6.1167997773736715e-04</internalNodes>
          <leafValues>
            3.7568154931068420e-01 -1.4789931476116180e-01</leafValues></_>
        <_>
          <internalNodes>
            0 -1 15 2.9213447123765945e-03</internalNodes>
          <leafValues>
            1.0569856315851212e-01 -5.6261259317398071e-01</leafValues></_>
        <_>
          <internalNodes>
            0 -1 42 -6.5569058060646057e-02</internalNodes>
          <leafValues>
            6.9957447052001953e-01 -9.1634057462215424e-02</leafValues></_>
        <_>
          <internalNodes>
            0 -1 29 -5.6609464081702754e-05</internalNodes>
          <leafValues>
            2.5091749429702759e-01 -2.6344907283782959e-01</leafValues></_>
        <_>
          <internalNodes>
            0 -1 90 -3.8832947611808777e-03</internalNodes>
          <leafValues>
            4.6436005830764771e-01 -1.3538107275962830e-01</leafValues></_>
        <_>
          <internalNodes>
            0 -1 31 -3.6437716335058212e-03</internalNodes>
          <leafValues>
            -6.8235111236572266e-01 9.1623447835445404e-02</leafValues></_>
        <_>
          <internalNodes>
            0 -1 24 -4.9651190638542175e-03</internalNodes>
          <leafValues>
            5.5125407874584198e-02 -1.7193515300750732e+00</leafValues></_>
        <_>
          <internalNodes>
            0 -1 2 -6.1335377395153046e-03</internalNodes>
          <leafValues>
            -1.0644947290420532e+00 6.7147411406040192e-02</leafValues></_></weakClassifiers></_>
    <!-- stage 10 -->
    <_>
      <maxWeakCount>23</maxWeakCount>
      <stageThreshold>-1.3170396089553833e+00</stageThreshold>
      <weakClassifiers>
        <_>
          <internalNodes>
            0 -1 5 -3.1334403902292252e-02</internalNodes>
          <leafValues>
            5.2236473560333252e-01 -3.4804546833038330e-01</leafValues></_>
        <_>
          <internalNodes>
            0 -1 108 3.9287987165153027e-03</internalNodes>
          <leafValues>
            -1.0289818793535233e-01 8.5988086462020874e-01</leafValues></_>
        <_>
          <internalNodes>
            0 -1 74 -2.3868184536695480e-02</internalNodes>
          <leafValues>
            2.5627997517585754e-01 -2.9547351598739624e-01</leafValues></_>
        <_>
          <internalNodes>
            0 -1 87 1.9096302567049861e-03</internalNodes>
          <leafValues>
            -4.0800192952156067e-01 2.1439151465892792e-01</leafValues></_>
        <_>
          <internalNodes>
            0 -1 107 8.8395411148667336e-04</internalNodes>
          <leafValues>
            -1.7999196052551270e-01 3.6517253518104553e-01</leafValues></_>
        <_>
          <internalNodes>
            0 -1 145 1.2527531944215298e-03</internalNodes>
          <leafValues>
            -2.7028301358222961e-01 2.4123866856098175e-01</leafValues></_>
        <_>
          <internalNodes>
            0 -1 136 2.1787262521684170e-03</internalNodes>
          <leafValues>
            1.1583428829908371e-01 -6.4441519975662231e-01</leafValues></_>
        <_>
          <internalNodes>
            0 -1 115 -3.1925560906529427e-03</internalNodes>
          <leafValues>
            -6.9766092300415039e-01 1.0699742287397385e-01</leafValues></_>
        <_>
          <internalNodes>
            0 -1 79 -2.0968545973300934e-01</internalNodes>
          <leafValues>
            6.1436887830495834e-02 -1.6931600570678711e+00</leafValues></_>
        <_>
          <internalNodes>
            0 -1 120 -8.4300804883241653e-04</internalNodes>
          <leafValues>
            3.8313412666320801e-01 -1.5763989090919495e-01</leafValues></_>
        <_>
          <internalNodes>
            0 -1 148 -3.7990943528711796e-03</internalNodes>
          <leafValues>
            -1.2913650274276733e-01 5.2041184902191162e-01</leafValues></_>
        <_>
          <internalNodes>
            0 -1 50 -6.7435950040817261e-04</internalNodes>
          <leafValues>
            2.2569972276687622e-01 -3.2716029882431030e-01</leafValues></_>
        <_>
          <internalNodes>
            0 -1 3 1.7568116309121251e-03</internalNodes>
          <leafValues>
            6.9550566375255585e-02 -9.4955718517303467e-01</leafValues></_>
        <_>
          <internalNodes>
            0 -1 125 -4.2849555611610413e-03</internalNodes>
          <leafValues>
            5.7384258508682251e-01 -1.1820998042821884e-01</leafValues></_>
        <_>
          <internalNodes>
            0 -1 27 -1.9909422844648361e-03</internalNodes>
          <leafValues>
            -5.1280671358108521e-01 1.1436307430267334e-01</leafValues></_>
        <_>
          <internalNodes>
            0 -1 40 -9.0279370546340942e-02</internalNodes>
          <leafValues>
            2.8507372736930847e-01 -2.3710899055004120e-01</leafValues></_>
        <_>
          <internalNodes>
            0 -1 70 -1.3163112103939056e-01</internalNodes>
          <leafValues>
            -6.7284142971038818e-01 1.4603680372238159e-01</leafValues></_>
        <_>
          <internalNodes>
            0 -1 71 -2.3570135235786438e-03</internalNodes>
          <leafValues>
            5.8602356910705566e-01 -1.0773010551929474e-01</leafValues></_>
        <_>
          <internalNodes>
            0 -1 76 2.4504583328962326e-02</internalNodes>
          <leafValues>
            9.9744692444801331e-02 -6.7615973949432373e-01</leafValues></_>
        <_>
          <internalNodes>
            0 -1 80 -9.8753655329346657e-03</internalNodes>
          <leafValues>
            1.0425811260938644e-01 -5.7881158590316772e-01</leafValues></_>
        <_>
          <internalNodes>
            0 -1 95 -6.8779075518250465e-03</internalNodes>
          <leafValues>
            5.9360247850418091e-01 -9.2557251453399658e-02</leafValues></_>
        <_>
          <internalNodes>
            0 -1 124 -2.5047918315976858e-03</internalNodes>
          <leafValues>
            -1.0155485570430756e-01 6.1483025550842285e-01</leafValues></_>
        <_>
          <internalNodes>
            0 -1 154 -5.2891056984663010e-03</internalNodes>
          <leafValues>
            -1.1280626058578491e+00 5.7617686688899994e-02</leafValues></_></weakClassifiers></_></stages>
  <features>
    <_>
      <rects>
        <_>
          0 0 1 6 -1.</_>
        <_>
          0 3 1 3 2.</_></rects>
      <tilted>0</tilted></_>
    <_>
      <rects>
        <_>
          0 0 1 8 -1.</_>
        <_>
          0 4 1 4 2.</_></rects>
      <tilted>0</tilted></_>
    <_>
      <rects>
        <_>
          0 0 2 5 -1.</_>
        <_>
          1 0 1 5 2.</_></rects>
      <tilted>0</tilted></_>
    <_>
      <rects>
        <_>
          0 0 2 2 -1.</_>
        <_>
          0 1 2 1 2.</_></rects>
      <tilted>0</tilted></_>
    <_>
      <rects>
        <_>
          0 0 4 19 -1.</_>
        <_>
          2 0 2 19 2.</_></rects>
      <tilted>0</tilted></_>
    <_>
      <rects>
        <_>
          0 0 4 20 -1.</_>
        <_>
          2 0 2 20 2.</_></rects>
      <tilted>0</tilted></_>
    <_>
      <rects>
        <_>
          0 0 5 2 -1.</_>
        <_>
          0 1 5 1 2.</_></rects>
      <tilted>0</tilted></_>
    <_>
      <rects>
        <_>
          0 0 5 6 -1.</_>
        <_>
          0 3 5 3 2.</_></rects>
      <tilted>0</tilted></_>
    <_>
      <rects>
        <_>
          0 0 16 5 -1.</_>
        <_>
          8 0 8 5 2.</_></rects>
      <tilted>0</tilted></_>
    <_>
      <rects>
        <_>
          0 0 18 2 -1.</_>
        <_>
          9 0 9 2 2.</_></rects>
      <tilted>0</tilted></_>
    <_>
      <rects>
        <_>
          0 1 1 10 -1.</_>
        <_>
          0 6 1 5 2.</_></rects>
      <tilted>0</tilted></_>
    <_>
      <rects>
        <_>
          0 1 10 18 -1.</_>
        <_>
          5 1 5 18 2.</_></rects>
      <tilted>0</tilted></_>
    <_>
      <rects>
        <_>
          0 1 16 6 -1.</_>
        <_>
          8 1 8 6 2.</_></rects>
      <tilted>0</tilted></_>
    <_>
      <rects>
        <_>
          0 1 18 4 -1.</_>
        <_>
          9 1 9 4 2.</_></rects>
      <tilted>0</tilted></_>
    <_>
      <rects>
        <_>
          0 2 20 16 -1.</_>
        <_>
          0 2 10 8 2.</_>
        <_>
          10 10 10 8 2.</_></rects>
      <tilted>0</tilted></_>
    <_>
      <rects>
        <_>
          0 3 2 6 -1.</_>
        <_>
          0 6 2 3 2.</_></rects>
      <tilted>0</tilted></_>
    <_>
      <rects>
        <_>
          0 4 3 8 -1.</_>
        <_>
          1 4 1 8 2.</_></rects>
      <tilted>0</tilted></_>
    <_>
      <rects>
        <_>
          0 4 7 16 -1.</_>
        <_>
          0 12 7 8 2.</_></rects>
      <tilted>0</tilted></_>
    <_>
      <rects>
        <_>
          0 4 10 16 -1.</_>
        <_>
          0 12 10 8 2.</_></rects>
      <tilted>0</tilted></_>
    <_>
      <rects>
        <_>
          0 5 9 8 -1.</_>
        <_>
          0 9 9 4 2.</_></rects>
      <tilted>0</tilted></_>
    <_>
      <rects>
        <_>
          0 6 1 10 -1.</_>
        <_>
          0 11 1 5 2.</_></rects>
      <tilted>0</tilted></_>
    <_>
      <rects>
        <_>
          0 6 3 3 -1.</_>
        <_>
          0 7 3 1 2.</_></rects>
      <tilted>0</tilted></_>
    <_>
      <rects>
        <_>
          0 6 19 14 -1.</_>
        <_>
          0 13 19 7 2.</_></rects>
      <tilted>0</tilted></_>
    <_>
      <rects>
        <_>
          0 7 6 12 -1.</_>
        <_>
          0 7 3 6 2.</_>
        <_>
          3 13 3 6 2.</_></rects>
      <tilted>0</tilted></_>
    <_>
      <rects>
        <_>
          0 8 2 6 -1.</_>
        <_>
          0 10 2 2 2.</_></rects>
      <tilted>0</tilted></_>
    <_>
      <rects>
        <_>
          0 8 10 12 -1.</_>
        <_>
          0 14 10 6 2.</_></rects>
      <tilted>0</tilted></_>
    <_>
      <rects>
        <_>
          0 9 18 7 -1.</_>
        <_>
          6 9 6 7 2.</_></rects>
      <tilted>0</tilted></_>
    <_>
      <rects>
        <_>
          0 10 1 6 -1.</_>
        <_>
          0 13 1 3 2.</_></rects>
      <tilted>0</tilted></_>
    <_>
      <rects>
        <_>
          0 10 4 6 -1.</_>
        <_>
          0 10 2 3 2.</_>
        <_>
          2 13 2 3 2.</_></rects>
      <tilted>0</tilted></_>
    <_>
      <rects>
        <_>
          0 12 2 1 -1.</_>
        <_>
          1 12 1 1 2.</_></rects>
      <tilted>0</tilted></_>
    <_>
      <rects>
        <_>
          0 13 19 3 -1.</_>
        <_>
          0 14 19 1 2.</_></rects>
      <tilted>0</tilted></_>
    <_>
      <rects>
        <_>
          0 14 1 6 -1.</_>
        <_>
          0 17 1 3 2.</_></rects>
      <tilted>0</tilted></_>
    <_>
      <rects>
        <_>
          0 17 2 3 -1.</_>
        <_>
          0 18 2 1 2.</_></rects>
      <tilted>0</tilted></_>
    <_>
      <rects>
        <_>
          0 17 18 3 -1.</_>
        <_>
          9 17 9 3 2.</_></rects>
      <tilted>0</tilted></_>
    <_>
      <rects>
        <_>
          0 17 20 3 -1.</_>
        <_>
          0 18 20 1 2.</_></rects>
      <tilted>0</tilted></_>
    <_>
      <rects>
        <_>
          0 19 8 1 -1.</_>
        <_>
          4 19 4 1 2.</_></rects>
      <tilted>0</tilted></_>
    <_>
      <rects>
        <_>
          1 0 2 2 -1.</_>
        <_>
          1 1 2 1 2.</_></rects>
      <tilted>0</tilted></_>
    <_>
      <rects>
        <_>
          1 0 14 5 -1.</_>
        <_>
          8 0 7 5 2.</_></rects>
      <tilted>0</tilted></_>
    <_>
      <rects>
        <_>
          1 0 10 6 -1.</_>
        <_>
          1 3 10 3 2.</_></rects>
      <tilted>0</tilted></_>
    <_>
      <rects>
        <_>
          1 1 6 8 -1.</_>
        <_>
          1 1 3 4 2.</_>
        <_>
          4 5 3 4 2.</_></rects>
      <tilted>0</tilted></_>
    <_>
      <rects>
        <_>
          1 4 7 16 -1.</_>
        <_>
          1 12 7 8 2.</_></rects>
      <tilted>0</tilted></_>
    <_>
      <rects>
        <_>
          1 8 12 12 -1.</_>
        <_>
          5 8 4 12 2.</_></rects>
      <tilted>0</tilted></_>
    <_>
      <rects>
        <_>
          1 10 4 10 -1.</_>
        <_>
          1 15 4 5 2.</_></rects>
      <tilted>0</tilted></_>
    <_>
      <rects>
        <_>
          1 10 10 5 -1.</_>
        <_>
          6 10 5 5 2.</_></rects>
      <tilted>0</tilted></_>
    <_>
      <rects>
        <_>
          1 10 14 4 -1.</_>
        <_>
          8 10 7 4 2.</_></rects>
      <tilted>0</tilted></_>
    <_>
      <rects>
        <_>
          1 10 16 8 -1.</_>
        <_>
          1 10 8 4 2.</_>
        <_>
          9 14 8 4 2.</_></rects>
      <tilted>0</tilted></_>
    <_>
      <rects>
        <_>
          1 14 16 6 -1.</_>
        <_>
          1 17 16 3 2.</_></rects>
      <tilted>0</tilted></_>
    <_>
      <rects>
        <_>
          1 18 1 2 -1.</_>
        <_>
          1 19 1 1 2.</_></rects>
      <tilted>0</tilted></_>
    <_>
      <rects>
        <_>
          2 0 1 8 -1.</_>
        <_>
          2 4 1 4 2.</_></rects>
      <tilted>0</tilted></_>
    <_>
      <rects>
        <_>
          2 1 4 3 -1.</_>
        <_>
          4 1 2 3 2.</_></rects>
      <tilted>0</tilted></_>
    <_>
      <rects>
        <_>
          3 0 2 6 -1.</_>
        <_>
          3 3 2 3 2.</_></rects>
      <tilted>0</tilted></_>
    <_>
      <rects>
        <_>
          3 2 3 15 -1.</_>
        <_>
          3 7 3 5 2.</_></rects>
      <tilted>0</tilted></_>
    <_>
      <rects>
        <_>
          3 2 3 18 -1.</_>
        <_>
          3 8 3 6 2.</_></rects>
      <tilted>0</tilted></_>
    <_>
      <rects>
        <_>
          3 5 15 6 -1.</_>
        <_>
          8 5 5 6 2.</_></rects>
      <tilted>0</tilted></_>
    <_>
      <rects>
        <_>
          3 10 2 4 -1.</_>
        <_>
          3 10 1 2 2.</_>
        <_>
          4 12 1 2 2.</_></rects>
      <tilted>0</tilted></_>
    <_>
      <rects>
        <_>
          3 13 4 4 -1.</_>
        <_>
          3 13 2 2 2.</_>
        <_>
          5 15 2 2 2.</_></rects>
      <tilted>0</tilted></_>
    <_>
      <rects>
        <_>
          4 0 16 1 -1.</_>
        <_>
          12 0 8 1 2.</_></rects>
      <tilted>0</tilted></_>
    <_>
      <rects>
        <_>
          4 2 4 16 -1.</_>
        <_>
          6 2 2 16 2.</_></rects>
      <tilted>0</tilted></_>
    <_>
      <rects>
        <_>
          4 4 14 15 -1.</_>
        <_>
          4 9 14 5 2.</_></rects>
      <tilted>0</tilted></_>
    <_>
      <rects>
        <_>
          4 5 16 9 -1.</_>
        <_>
          12 5 8 9 2.</_></rects>
      <tilted>0</tilted></_>
    <_>
      <rects>
        <_>
          4 8 6 2 -1.</_>
        <_>
          4 8 3 1 2.</_>
        <_>
          7 9 3 1 2.</_></rects>
      <tilted>0</tilted></_>
    <_>
      <rects>
        <_>
          4 12 2 6 -1.</_>
        <_>
          4 12 1 3 2.</_>
        <_>
          5 15 1 3 2.</_></rects>
      <tilted>0</tilted></_>
    <_>
      <rects>
        <_>
          4 14 9 6 -1.</_>
        <_>
          4 17 9 3 2.</_></rects>
      <tilted>0</tilted></_>
    <_>
      <rects>
        <_>
          4 15 4 2 -1.</_>
        <_>
          4 15 2 1 2.</_>
        <_>
          6 16 2 1 2.</_></rects>
      <tilted>0</tilted></_>
    <_>
      <rects>
        <_>
          4 18 16 1 -1.</_>
        <_>
          12 18 8 1 2.</_></rects>
      <tilted>0</tilted></_>
    <_>
      <rects>
        <_>
          5 0 4 9 -1.</_>
        <_>
          7 0 2 9 2.</_></rects>
      <tilted>0</tilted></_>
    <_>
      <rects>
        <_>
          5 1 14 17 -1.</_>
        <_>
          12 1 7 17 2.</_></rects>
      <tilted>0</tilted></_>
    <_>
      <rects>
        <_>
          5 3 5 12 -1.</_>
        <_>
          5 9 5 6 2.</_></rects>
      <tilted>0</tilted></_>
    <_>
      <rects>
        <_>
          5 4 6 2 -1.</_>
        <_>
          5 4 3 1 2.</_>
        <_>
          8 5 3 1 2.</_></rects>
      <tilted>0</tilted></_>
    <_>
      <rects>
        <_>
          5 9 8 3 -1.</_>
        <_>
          9 9 4 3 2.</_></rects>
      <tilted>0</tilted></_>
    <_>
      <rects>
        <_>
          5 9 15 8 -1.</_>
        <_>
          5 13 15 4 2.</_></rects>
      <tilted>0</tilted></_>
    <_>
      <rects>
        <_>
          5 11 2 2 -1.</_>
        <_>
          5 11 1 1 2.</_>
        <_>
          6 12 1 1 2.</_></rects>
      <tilted>0</tilted></_>
    <_>
      <rects>
        <_>
          6 1 4 8 -1.</_>
        <_>
          6 1 2 4 2.</_>
        <_>
          8 5 2 4 2.</_></rects>
      <tilted>0</tilted></_>
    <_>
      <rects>
        <_>
          6 5 9 7 -1.</_>
        <_>
          9 5 3 7 2.</_></rects>
      <tilted>0</tilted></_>
    <_>
      <rects>
        <_>
          6 6 14 12 -1.</_>
        <_>
          13 6 7 12 2.</_></rects>
      <tilted>0</tilted></_>
    <_>
      <rects>
        <_>
          6 8 2 2 -1.</_>
        <_>
          6 8 1 1 2.</_>
        <_>
          7 9 1 1 2.</_></rects>
      <tilted>0</tilted></_>
    <_>
      <rects>
        <_>
          6 8 6 12 -1.</_>
        <_>
          6 8 3 6 2.</_>
        <_>
          9 14 3 6 2.</_></rects>
      <tilted>0</tilted></_>
    <_>
      <rects>
        <_>
          6 9 2 5 -1.</_>
        <_>
          7 9 1 5 2.</_></rects>
      <tilted>0</tilted></_>
    <_>
      <rects>
        <_>
          6 16 9 4 -1.</_>
        <_>
          6 18 9 2 2.</_></rects>
      <tilted>0</tilted></_>
    <_>
      <rects>
        <_>
          7 1 12 13 -1.</_>
        <_>
          11 1 4 13 2.</_></rects>
      <tilted>0</tilted></_>
    <_>
      <rects>
        <_>
          7 11 6 1 -1.</_>
        <_>
          9 11 2 1 2.</_></rects>
      <tilted>0</tilted></_>
    <_>
      <rects>
        <_>
          7 12 6 8 -1.</_>
        <_>
          9 12 2 8 2.</_></rects>
      <tilted>0</tilted></_>
    <_>
      <rects>
        <_>
          7 16 4 2 -1.</_>
        <_>
          7 16 2 1 2.</_>
        <_>
          9 17 2 1 2.</_></rects>
      <tilted>0</tilted></_>
    <_>
      <rects>
        <_>
          8 1 6 14 -1.</_>
        <_>
          8 8 6 7 2.</_></rects>
      <tilted>0</tilted></_>
    <_>
      <rects>
        <_>
          8 2 9 12 -1.</_>
        <_>
          8 6 9 4 2.</_></rects>
      <tilted>0</tilted></_>
    <_>
      <rects>
        <_>
          8 3 2 8 -1.</_>
        <_>
          8 3 1 4 2.</_>
        <_>
          9 7 1 4 2.</_></rects>
      <tilted>0</tilted></_>
    <_>
      <rects>
        <_>
          8 10 2 2 -1.</_>
        <_>
          8 10 1 1 2.</_>
        <_>
          9 11 1 1 2.</_></rects>
      <tilted>0</tilted></_>
    <_>
      <rects>
        <_>
          8 17 12 3 -1.</_>
        <_>
          14 17 6 3 2.</_></rects>
      <tilted>0</tilted></_>
    <_>
      <rects>
        <_>
          9 0 8 1 -1.</_>
        <_>
          13 0 4 1 2.</_></rects>
      <tilted>0</tilted></_>
    <_>
      <rects>
        <_>
          9 1 10 10 -1.</_>
        <_>
          9 1 5 5 2.</_>
        <_>
          14 6 5 5 2.</_></rects>
      <tilted>0</tilted></_>
    <_>
      <rects>
        <_>
          9 5 10 2 -1.</_>
        <_>
          9 5 5 1 2.</_>
        <_>
          14 6 5 1 2.</_></rects>
      <tilted>0</tilted></_>
    <_>
      <rects>
        <_>
          9 7 2 2 -1.</_>
        <_>
          9 7 1 1 2.</_>
        <_>
          10 8 1 1 2.</_></rects>
      <tilted>0</tilted></_>
    <_>
      <rects>
        <_>
          9 8 2 2 -1.</_>
        <_>
          9 8 1 1 2.</_>
        <_>
          10 9 1 1 2.</_></rects>
      <tilted>0</tilted></_>
    <_>
      <rects>
        <_>
          9 11 9 6 -1.</_>
        <_>
          9 14 9 3 2.</_></rects>
      <tilted>0</tilted></_>
    <_>
      <rects>
        <_>
          9 13 2 2 -1.</_>
        <_>
          9 13 1 1 2.</_>
        <_>
          10 14 1 1 2.</_></rects>
      <tilted>0</tilted></_>
    <_>
      <rects>
        <_>
          9 13 2 6 -1.</_>
        <_>
          9 13 1 3 2.</_>
        <_>
          10 16 1 3 2.</_></rects>
      <tilted>0</tilted></_>
    <_>
      <rects>
        <_>
          9 15 2 2 -1.</_>
        <_>
          9 15 1 1 2.</_>
        <_>
          10 16 1 1 2.</_></rects>
      <tilted>0</tilted></_>
    <_>
      <rects>
        <_>
          9 16 4 2 -1.</_>
        <_>
          9 16 2 1 2.</_>
        <_>
          11 17 2 1 2.</_></rects>
      <tilted>0</tilted></_>
    <_>
      <rects>
        <_>
          10 7 2 2 -1.</_>
        <_>
          10 7 1 1 2.</_>
        <_>
          11 8 1 1 2.</_></rects>
      <tilted>0</tilted></_>
    <_>
      <rects>
        <_>
          10 8 10 9 -1.</_>
        <_>
          10 11 10 3 2.</_></rects>
      <tilted>0</tilted></_>
    <_>
      <rects>
        <_>
          10 9 1 10 -1.</_>
        <_>
          10 14 1 5 2.</_></rects>
      <tilted>0</tilted></_>
    <_>
      <rects>
        <_>
          10 12 10 8 -1.</_>
        <_>
          15 12 5 8 2.</_></rects>
      <tilted>0</tilted></_>
    <_>
      <rects>
        <_>
          10 15 4 2 -1.</_>
        <_>
          10 15 2 1 2.</_>
        <_>
          12 16 2 1 2.</_></rects>
      <tilted>0</tilted></_>
    <_>
      <rects>
        <_>
          10 16 8 4 -1.</_>
        <_>
          14 16 4 4 2.</_></rects>
      <tilted>0</tilted></_>
    <_>
      <rects>
        <_>
          10 19 6 1 -1.</_>
        <_>
          13 19 3 1 2.</_></rects>
      <tilted>0</tilted></_>
    <_>
      <rects>
        <_>
          11 11 2 2 -1.</_>
        <_>
          11 11 1 1 2.</_>
        <_>
          12 12 1 1 2.</_></rects>
      <tilted>0</tilted></_>
    <_>
      <rects>
        <_>
          11 13 2 2 -1.</_>
        <_>
          11 13 1 1 2.</_>
        <_>
          12 14 1 1 2.</_></rects>
      <tilted>0</tilted></_>
    <_>
      <rects>
        <_>
          11 14 2 1 -1.</_>
        <_>
          12 14 1 1 2.</_></rects>
      <tilted>0</tilted></_>
    <_>
      <rects>
        <_>
          11 14 2 2 -1.</_>
        <_>
          11 14 1 1 2.</_>
        <_>
          12 15 1 1 2.</_></rects>
      <tilted>0</tilted></_>
    <_>
      <rects>
        <_>
          11 15 2 1 -1.</_>
        <_>
          12 15 1 1 2.</_></rects>
      <tilted>0</tilted></_>
    <_>
      <rects>
        <_>
          11 15 4 2 -1.</_>
        <_>
          11 15 2 1 2.</_>
        <_>
          13 16 2 1 2.</_></rects>
      <tilted>0</tilted></_>
    <_>
      <rects>
        <_>
          12 6 8 11 -1.</_>
        <_>
          16 6 4 11 2.</_></rects>
      <tilted>0</tilted></_>
    <_>
      <rects>
        <_>
          12 14 1 3 -1.</_>
        <_>
          12 15 1 1 2.</_></rects>
      <tilted>0</tilted></_>
    <_>
      <rects>
        <_>
          12 15 2 2 -1.</_>
        <_>
          12 15 1 1 2.</_>
        <_>
          13 16 1 1 2.</_></rects>
      <tilted>0</tilted></_>
    <_>
      <rects>
        <_>
          12 15 4 1 -1.</_>
        <_>
          14 15 2 1 2.</_></rects>
      <tilted>0</tilted></_>
    <_>
      <rects>
        <_>
          12 19 8 1 -1.</_>
        <_>
          16 19 4 1 2.</_></rects>
      <tilted>0</tilted></_>
    <_>
      <rects>
        <_>
          13 0 4 2 -1.</_>
        <_>
          15 0 2 2 2.</_></rects>
      <tilted>0</tilted></_>
    <_>
      <rects>
        <_>
          13 0 6 10 -1.</_>
        <_>
          16 0 3 10 2.</_></rects>
      <tilted>0</tilted></_>
    <_>
      <rects>
        <_>
          13 0 6 12 -1.</_>
        <_>
          13 4 6 4 2.</_></rects>
      <tilted>0</tilted></_>
    <_>
      <rects>
        <_>
          13 2 6 15 -1.</_>
        <_>
          16 2 3 15 2.</_></rects>
      <tilted>0</tilted></_>
    <_>
      <rects>
        <_>
          13 4 2 2 -1.</_>
        <_>
          13 4 1 1 2.</_>
        <_>
          14 5 1 1 2.</_></rects>
      <tilted>0</tilted></_>
    <_>
      <rects>
        <_>
          13 7 6 10 -1.</_>
        <_>
          16 7 3 10 2.</_></rects>
      <tilted>0</tilted></_>
    <_>
      <rects>
        <_>
          13 11 4 1 -1.</_>
        <_>
          15 11 2 1 2.</_></rects>
      <tilted>0</tilted></_>
    <_>
      <rects>
        <_>
          13 13 4 4 -1.</_>
        <_>
          13 13 2 2 2.</_>
        <_>
          15 15 2 2 2.</_></rects>
      <tilted>0</tilted></_>
    <_>
      <rects>
        <_>
          13 15 3 1 -1.</_>
        <_>
          14 15 1 1 2.</_></rects>
      <tilted>0</tilted></_>
    <_>
      <rects>
        <_>
          13 15 4 2 -1.</_>
        <_>
          13 15 2 1 2.</_>
        <_>
          15 16 2 1 2.</_></rects>
      <tilted>0</tilted></_>
    <_>
      <rects>
        <_>
          14 0 6 1 -1.</_>
        <_>
          17 0 3 1 2.</_></rects>
      <tilted>0</tilted></_>
    <_>
      <rects>
        <_>
          14 0 6 8 -1.</_>
        <_>
          14 4 6 4 2.</_></rects>
      <tilted>0</tilted></_>
    <_>
      <rects>
        <_>
          14 4 2 8 -1.</_>
        <_>
          14 4 1 4 2.</_>
        <_>
          15 8 1 4 2.</_></rects>
      <tilted>0</tilted></_>
    <_>
      <rects>
        <_>
          14 5 6 8 -1.</_>
        <_>
          16 5 2 8 2.</_></rects>
      <tilted>0</tilted></_>
    <_>
      <rects>
        <_>
          14 6 2 4 -1.</_>
        <_>
          14 6 1 2 2.</_>
        <_>
          15 8 1 2 2.</_></rects>
      <tilted>0</tilted></_>
    <_>
      <rects>
        <_>
          14 6 6 11 -1.</_>
        <_>
          17 6 3 11 2.</_></rects>
      <tilted>0</tilted></_>
    <_>
      <rects>
        <_>
          14 7 2 2 -1.</_>
        <_>
          14 7 1 1 2.</_>
        <_>
          15 8 1 1 2.</_></rects>
      <tilted>0</tilted></_>
    <_>
      <rects>
        <_>
          14 8 6 10 -1.</_>
        <_>
          16 8 2 10 2.</_></rects>
      <tilted>0</tilted></_>
    <_>
      <rects>
        <_>
          14 9 2 6 -1.</_>
        <_>
          14 9 1 3 2.</_>
        <_>
          15 12 1 3 2.</_></rects>
      <tilted>0</tilted></_>
    <_>
      <rects>
        <_>
          14 18 6 2 -1.</_>
        <_>
          17 18 3 2 2.</_></rects>
      <tilted>0</tilted></_>
    <_>
      <rects>
        <_>
          14 19 4 1 -1.</_>
        <_>
          16 19 2 1 2.</_></rects>
      <tilted>0</tilted></_>
    <_>
      <rects>
        <_>
          15 0 4 4 -1.</_>
        <_>
          15 2 4 2 2.</_></rects>
      <tilted>0</tilted></_>
    <_>
      <rects>
        <_>
          15 12 1 4 -1.</_>
        <_>
          15 14 1 2 2.</_></rects>
      <tilted>0</tilted></_>
    <_>
      <rects>
        <_>
          15 12 2 4 -1.</_>
        <_>
          15 12 1 2 2.</_>
        <_>
          16 14 1 2 2.</_></rects>
      <tilted>0</tilted></_>
    <_>
      <rects>
        <_>
          15 19 4 1 -1.</_>
        <_>
          17 19 2 1 2.</_></rects>
      <tilted>0</tilted></_>
    <_>
      <rects>
        <_>
          16 0 4 2 -1.</_>
        <_>
          18 0 2 2 2.</_></rects>
      <tilted>0</tilted></_>
    <_>
      <rects>
        <_>
          16 1 2 8 -1.</_>
        <_>
          16 5 2 4 2.</_></rects>
      <tilted>0</tilted></_>
    <_>
      <rects>
        <_>
          16 3 3 6 -1.</_>
        <_>
          16 6 3 3 2.</_></rects>
      <tilted>0</tilted></_>
    <_>
      <rects>
        <_>
          16 8 4 1 -1.</_>
        <_>
          18 8 2 1 2.</_></rects>
      <tilted>0</tilted></_>
    <_>
      <rects>
        <_>
          17 0 1 12 -1.</_>
        <_>
          17 6 1 6 2.</_></rects>
      <tilted>0</tilted></_>
    <_>
      <rects>
        <_>
          18 0 2 2 -1.</_>
        <_>
          19 0 1 2 2.</_></rects>
      <tilted>0</tilted></_>
    <_>
      <rects>
        <_>
          18 0 2 20 -1.</_>
        <_>
          18 10 2 10 2.</_></rects>
      <tilted>0</tilted></_>
    <_>
      <rects>
        <_>
          18 6 1 3 -1.</_>
        <_>
          18 7 1 1 2.</_></rects>
      <tilted>0</tilted></_>
    <_>
      <rects>
        <_>
          18 9 2 10 -1.</_>
        <_>
          18 14 2 5 2.</_></rects>
      <tilted>0</tilted></_>
    <_>
      <rects>
        <_>
          18 16 1 4 -1.</_>
        <_>
          18 18 1 2 2.</_></rects>
      <tilted>0</tilted></_>
    <_>
      <rects>
        <_>
          19 0 1 6 -1.</_>
        <_>
          19 3 1 3 2.</_></rects>
      <tilted>0</tilted></_>
    <_>
      <rects>
        <_>
          19 0 1 8 -1.</_>
        <_>
          19 4 1 4 2.</_></rects>
      <tilted>0</tilted></_>
    <_>
      <rects>
        <_>
          19 1 1 18 -1.</_>
        <_>
          19 10 1 9 2.</_></rects>
      <tilted>0</tilted></_>
    <_>
      <rects>
        <_>
          19 2 1 6 -1.</_>
        <_>
          19 5 1 3 2.</_></rects>
      <tilted>0</tilted></_>
    <_>
      <rects>
        <_>
          19 7 1 12 -1.</_>
        <_>
          19 13 1 6 2.</_></rects>
      <tilted>0</tilted></_>
    <_>
      <rects>
        <_>
          19 8 1 6 -1.</_>
        <_>
          19 11 1 3 2.</_></rects>
      <tilted>0</tilted></_>
    <_>
      <rects>
        <_>
          19 8 1 12 -1.</_>
        <_>
          19 14 1 6 2.</_></rects>
      <tilted>0</tilted></_></features></cascade>
</opencv_storage>
