<?xml version="1.0"?>
<opencv_storage>
<stage10>
  <maxWeakCount>23</maxWeakCount>
  <stageThreshold>-1.3170396089553833e+00</stageThreshold>
  <weakClassifiers>
    <_>
      <internalNodes>
        0 -1 130 -3.1334403902292252e-02</internalNodes>
      <leafValues>
        5.2236473560333252e-01 -3.4804546833038330e-01</leafValues></_>
    <_>
      <internalNodes>
        0 -1 65437 3.9287987165153027e-03</internalNodes>
      <leafValues>
        -1.0289818793535233e-01 8.5988086462020874e-01</leafValues></_>
    <_>
      <internalNodes>
        0 -1 42820 -2.3868184536695480e-02</internalNodes>
      <leafValues>
        2.5627997517585754e-01 -2.9547351598739624e-01</leafValues></_>
    <_>
      <internalNodes>
        0 -1 54561 1.9096302567049861e-03</internalNodes>
      <leafValues>
        -4.0800192952156067e-01 2.1439151465892792e-01</leafValues></_>
    <_>
      <internalNodes>
        0 -1 65433 8.8395411148667336e-04</internalNodes>
      <leafValues>
        -1.7999196052551270e-01 3.6517253518104553e-01</leafValues></_>
    <_>
      <internalNodes>
        0 -1 76678 1.2527531944215298e-03</internalNodes>
      <leafValues>
        -2.7028301358222961e-01 2.4123866856098175e-01</leafValues></_>
    <_>
      <internalNodes>
        0 -1 73522 2.1787262521684170e-03</internalNodes>
      <leafValues>
        1.1583428829908371e-01 -6.4441519975662231e-01</leafValues></_>
    <_>
      <internalNodes>
        0 -1 68705 -3.1925560906529427e-03</internalNodes>
      <leafValues>
        -6.9766092300415039e-01 1.0699742287397385e-01</leafValues></_>
    <_>
      <internalNodes>
        0 -1 45850 -2.0968545973300934e-01</internalNodes>
      <leafValues>
        6.1436887830495834e-02 -1.6931600570678711e+00</leafValues></_>
    <_>
      <internalNodes>
        0 -1 69601 -8.4300804883241653e-04</internalNodes>
      <leafValues>
        3.8313412666320801e-01 -1.5763989090919495e-01</leafValues></_>
    <_>
      <internalNodes>
        0 -1 77987 -3.7990943528711796e-03</internalNodes>
      <leafValues>
        -1.2913650274276733e-01 5.2041184902191162e-01</leafValues></_>
    <_>
      <internalNodes>
        0 -1 21828 -6.7435950040817261e-04</internalNodes>
      <leafValues>
        2.2569972276687622e-01 -3.2716029882431030e-01</leafValues></_>
    <_>
      <internalNodes>
        0 -1 67 1.7568116309121251e-03</internalNodes>
      <leafValues>
        6.9550566375255585e-02 -9.4955718517303467e-01</leafValues></_>
    <_>
      <internalNodes>
        0 -1 71060 -4.2849555611610413e-03</internalNodes>
      <leafValues>
        5.7384258508682251e-01 -1.1820998042821884e-01</leafValues></_>
    <_>
      <internalNodes>
        0 -1 5701 -1.9909422844648361e-03</internalNodes>
      <leafValues>
        -5.1280671358108521e-01 1.1436307430267334e-01</leafValues></_>
    <_>
      <internalNodes>
        0 -1 10520 -9.0279370546340942e-02</internalNodes>
      <leafValues>
        2.8507372736930847e-01 -2.3710899055004120e-01</leafValues></_>
    <_>
      <internalNodes>
        0 -1 38418 -1.3163112103939056e-01</internalNodes>
      <leafValues>
        -6.7284142971038818e-01 1.4603680372238159e-01</leafValues></_>
    <_>
      <internalNodes>
        0 -1 38699 -2.3570135235786438e-03</internalNodes>
      <leafValues>
        5.8602356910705566e-01 -1.0773010551929474e-01</leafValues></_>
    <_>
      <internalNodes>
        0 -1 43332 2.4504583328962326e-02</internalNodes>
      <leafValues>
        9.9744692444801331e-02 -6.7615973949432373e-01</leafValues></_>
    <_>
      <internalNodes>
        0 -1 49011 -9.8753655329346657e-03</internalNodes>
      <leafValues>
        1.0425811260938644e-01 -5.7881158590316772e-01</leafValues></_>
    <_>
      <internalNodes>
        0 -1 58115 -6.8779075518250465e-03</internalNodes>
      <leafValues>
        5.9360247850418091e-01 -9.2557251453399658e-02</leafValues></_>
    <_>
      <internalNodes>
        0 -1 71043 -2.5047918315976858e-03</internalNodes>
      <leafValues>
        -1.0155485570430756e-01 6.1483025550842285e-01</leafValues></_>
    <_>
      <internalNodes>
        0 -1 78332 -5.2891056984663010e-03</internalNodes>
      <leafValues>
        -1.1280626058578491e+00 5.7617686688899994e-02</leafValues></_></weakClassifiers></stage10>
</opencv_storage>
