<?xml version="1.0"?>
<opencv_storage>
<cascade>
  <stageType>BOOST</stageType>
  <featureType>LBP</featureType>
  <height>22</height>
  <width>22</width>
  <stageParams>
    <boostType>GAB</boostType>
    <minHitRate>9.9500000476837158e-01</minHitRate>
    <maxFalseAlarm>5.0000000000000000e-01</maxFalseAlarm>
    <weightTrimRate>9.4999998807907104e-01</weightTrimRate>
    <maxDepth>1</maxDepth>
    <maxWeakCount>110</maxWeakCount></stageParams>
  <featureParams>
    <maxCatCount>256</maxCatCount>
    <featSize>1</featSize></featureParams>
  <stageNum>20</stageNum>
  <stages>
    <!-- stage 0 -->
    <_>
      <maxWeakCount>3</maxWeakCount>
      <stageThreshold>-9.1864734888076782e-01</stageThreshold>
      <weakClassifiers>
        <_>
          <internalNodes>
            0 -1 37 -1877880748 -787415023 16777689 1565589505
            -268337015 -1157431165 159548044 -611102581</internalNodes>
          <leafValues>
            -7.9294115304946899e-01 7.3801916837692261e-01</leafValues></_>
        <_>
          <internalNodes>
            0 -1 7 135364620 1360003088 16777491 285216785 -1878949445
            -1727496191 134905995 -1089435629</internalNodes>
          <leafValues>
            -8.0973988771438599e-01 6.1090803146362305e-01</leafValues></_>
        <_>
          <internalNodes>
            0 -1 53 -1853685167 -754745255 -2147401653 1375764501
            -2004711382 -1685872508 -2008366951 -1107160037</internalNodes>
          <leafValues>
            -6.8349611759185791e-01 6.8403369188308716e-01</leafValues></_></weakClassifiers></_>
    <!-- stage 1 -->
    <_>
      <maxWeakCount>3</maxWeakCount>
      <stageThreshold>-8.8828670978546143e-01</stageThreshold>
      <weakClassifiers>
        <_>
          <internalNodes>
            0 -1 31 -784215524 286335425 208 2064715809 -2147374679
            -935329280 -654196532 -7343473</internalNodes>
          <leafValues>
            -7.9695433378219604e-01 6.0465115308761597e-01</leafValues></_>
        <_>
          <internalNodes>
            0 -1 29 152141825 -318504816 17859071 1360072977 -1609922117
            -1451196208 -1944024374 -511606645</internalNodes>
          <leafValues>
            -7.2710084915161133e-01 6.3898539543151855e-01</leafValues></_>
        <_>
          <internalNodes>
            0 -1 5 1241612463 -1203712000 -2092891887 -1861189374
            -1073569559 -125829115 557113 -21771769</internalNodes>
          <leafValues>
            -6.6461503505706787e-01 6.3576841354370117e-01</leafValues></_></weakClassifiers></_>
    <!-- stage 2 -->
    <_>
      <maxWeakCount>3</maxWeakCount>
      <stageThreshold>-8.7194347381591797e-01</stageThreshold>
      <weakClassifiers>
        <_>
          <internalNodes>
            0 -1 0 -2134318865 -1316941679 329 285344201 -1027555109
            -939491200 -926168949 -481861181</internalNodes>
          <leafValues>
            -7.3708921670913696e-01 6.6666668653488159e-01</leafValues></_>
        <_>
          <internalNodes>
            0 -1 41 -674375308 1908425729 1346405531 1493565459
            -2092049683 -1174405119 -1878913880 -70037367</internalNodes>
          <leafValues>
            -8.1438916921615601e-01 5.7770466804504395e-01</leafValues></_>
        <_>
          <internalNodes>
            0 -1 6 -535763194 1494306816 285312441 -553402366
            -2013206305 -125763584 -2004709893 -609500413</internalNodes>
          <leafValues>
            -6.6982978582382202e-01 6.7953485250473022e-01</leafValues></_></weakClassifiers></_>
    <!-- stage 3 -->
    <_>
      <maxWeakCount>4</maxWeakCount>
      <stageThreshold>-5.4298460483551025e-01</stageThreshold>
      <weakClassifiers>
        <_>
          <internalNodes>
            0 -1 56 -756559616 -788037622 32769 -782008317 -1073641332
            1090584578 -2139062136 401597131</internalNodes>
          <leafValues>
            -7.7486908435821533e-01 5.3370785713195801e-01</leafValues></_>
        <_>
          <internalNodes>
            0 -1 22 -1073692530 -1018167279 16781525 1560428548
            -1879015201 -1476394872 8421563 -1837072365</internalNodes>
          <leafValues>
            -7.5501656532287598e-01 5.1151126623153687e-01</leafValues></_>
        <_>
          <internalNodes>
            0 -1 52 1343606784 -734593022 318834840 -594997056
            -2104964857 -896892776 -2147382775 -226262869</internalNodes>
          <leafValues>
            -7.7535742521286011e-01 4.5994806289672852e-01</leafValues></_>
        <_>
          <internalNodes>
            0 -1 63 -1610447351 1396969538 34816 -795639806 1210089472
            134250624 -1584750574 -1299218295</internalNodes>
          <leafValues>
            -7.3957479000091553e-01 5.4787188768386841e-01</leafValues></_></weakClassifiers></_>
    <!-- stage 4 -->
    <_>
      <maxWeakCount>3</maxWeakCount>
      <stageThreshold>-1.0538349151611328e+00</stageThreshold>
      <weakClassifiers>
        <_>
          <internalNodes>
            0 -1 8 -788475516 -653250048 -805227374 -648867692
            -1983659797 -2130573310 -2136375221 -72678905</internalNodes>
          <leafValues>
            -8.3098590373992920e-01 4.9347257614135742e-01</leafValues></_>
        <_>
          <internalNodes>
            0 -1 61 -1823403421 1237487624 1359119400 -259424255
            -2121752552 302022786 -996499454 -152403318</internalNodes>
          <leafValues>
            -7.3764103651046753e-01 6.4245754480361938e-01</leafValues></_>
        <_>
          <internalNodes>
            0 -1 25 -2121170559 -1370467567 285346141 -166359023
            -1879041917 -1383497720 -2127517055 -539867807</internalNodes>
          <leafValues>
            -8.5637640953063965e-01 5.1479196548461914e-01</leafValues></_></weakClassifiers></_>
    <!-- stage 5 -->
    <_>
      <maxWeakCount>3</maxWeakCount>
      <stageThreshold>-1.0326497554779053e+00</stageThreshold>
      <weakClassifiers>
        <_>
          <internalNodes>
            0 -1 10 -149761596 -180088528 270582106 -136146672 196826
            -738189053 -1870528497 -71626453</internalNodes>
          <leafValues>
            -8.2587063312530518e-01 6.7261904478073120e-01</leafValues></_>
        <_>
          <internalNodes>
            0 -1 44 -408325308 -212610813 578567 -572702719 -2126462748
            -402653053 -1610372151 -67160012</internalNodes>
          <leafValues>
            -8.5108643770217896e-01 5.5317509174346924e-01</leafValues></_>
        <_>
          <internalNodes>
            0 -1 51 -1241309160 -788397623 268456074 -564817129
            -1862098806 -1576894464 -1037922165 -224362359</internalNodes>
          <leafValues>
            -7.5428360700607300e-01 6.4430731534957886e-01</leafValues></_></weakClassifiers></_>
    <!-- stage 6 -->
    <_>
      <maxWeakCount>4</maxWeakCount>
      <stageThreshold>-2.9064416885375977e-01</stageThreshold>
      <weakClassifiers>
        <_>
          <internalNodes>
            0 -1 24 831590877 -585957248 285233438 -46100460 -1831827205
            1535148160 1217038480 -103661335</internalNodes>
          <leafValues>
            -7.3113209009170532e-01 6.4968150854110718e-01</leafValues></_>
        <_>
          <internalNodes>
            0 -1 47 -268452065 -3 -536872209 -150994945 -161 2147483647
            -537001990 -19202050</internalNodes>
          <leafValues>
            -6.1909282207489014e-01 7.3767375946044922e-01</leafValues></_>
        <_>
          <internalNodes>
            0 -1 26 -1301913554 -1561849717 -1824521984 -435121664
            -1426046934 570425344 -1669181440 -534734206</internalNodes>
          <leafValues>
            -8.7467002868652344e-01 5.0170063972473145e-01</leafValues></_>
        <_>
          <internalNodes>
            0 -1 28 -784314393 2044375386 826294728 -1287491244 37078092
            -1459552110 -666211068 -1965493878</internalNodes>
          <leafValues>
            -7.6450228691101074e-01 5.7748419046401978e-01</leafValues></_></weakClassifiers></_>
    <!-- stage 7 -->
    <_>
      <maxWeakCount>4</maxWeakCount>
      <stageThreshold>-4.0923973917961121e-01</stageThreshold>
      <weakClassifiers>
        <_>
          <internalNodes>
            0 -1 35 -2113526001 -785381501 -1937522340 -113032681
            -1341617729 -907280216 -997655653 -36036041</internalNodes>
          <leafValues>
            -7.4500000476837158e-01 5.6804734468460083e-01</leafValues></_>
        <_>
          <internalNodes>
            0 -1 17 -768377426 1964576914 -1946121976 1598312722
            1073807631 -2004186999 -912177240 -1617958225</internalNodes>
          <leafValues>
            -8.0155223608016968e-01 5.0105226039886475e-01</leafValues></_>
        <_>
          <internalNodes>
            0 -1 43 732432916 857565791 555827443 -39075557 -796813092
            -1735761919 -1669097590 -463970164</internalNodes>
          <leafValues>
            -7.8692340850830078e-01 5.4027390480041504e-01</leafValues></_>
        <_>
          <internalNodes>
            0 -1 11 -1050680985 555253907 1627947081 -620724031
            -536598025 -939491320 1587658860 -355475280</internalNodes>
          <leafValues>
            -6.9141596555709839e-01 6.6623103618621826e-01</leafValues></_></weakClassifiers></_>
    <!-- stage 8 -->
    <_>
      <maxWeakCount>3</maxWeakCount>
      <stageThreshold>-8.8504713773727417e-01</stageThreshold>
      <weakClassifiers>
        <_>
          <internalNodes>
            0 -1 3 -1588516369 -1404988115 -250448617 -392494766
            681085423 -7552858 2089290710 -3261036</internalNodes>
          <leafValues>
            -8.3589744567871094e-01 6.3218390941619873e-01</leafValues></_>
        <_>
          <internalNodes>
            0 -1 64 -246458507 -2029074459 491427283 -531070379
            -850888910 -1972514543 -5062091 -60761170</internalNodes>
          <leafValues>
            -7.3274004459381104e-01 7.4322360754013062e-01</leafValues></_>
        <_>
          <internalNodes>
            0 -1 15 -951507457 -2044623549 -1010680567 -1374768024
            160680791 1556354360 -139956462 -61035839</internalNodes>
          <leafValues>
            -7.6571875810623169e-01 6.8359029293060303e-01</leafValues></_></weakClassifiers></_>
    <!-- stage 9 -->
    <_>
      <maxWeakCount>2</maxWeakCount>
      <stageThreshold>-1.5336671471595764e-01</stageThreshold>
      <weakClassifiers>
        <_>
          <internalNodes>
            0 -1 30 195242419 -1967830379 1315409267 1686814162
            -1700770371 -23780453 2040941207 -84681979</internalNodes>
          <leafValues>
            -7.8536587953567505e-01 6.5853661298751831e-01</leafValues></_>
        <_>
          <internalNodes>
            0 -1 45 354098143 -1727990747 -1010580188 -576927258
            15414611 -1169448026 -1952263344 -1151080152</internalNodes>
          <leafValues>
            -8.1190329790115356e-01 6.5466552972793579e-01</leafValues></_></weakClassifiers></_>
    <!-- stage 10 -->
    <_>
      <maxWeakCount>3</maxWeakCount>
      <stageThreshold>-8.9828228950500488e-01</stageThreshold>
      <weakClassifiers>
        <_>
          <internalNodes>
            0 -1 18 1371900383 -429876961 1347883545 -151873006
            -895336321 1887931937 -938499544 -25252740</internalNodes>
          <leafValues>
            -7.7128952741622925e-01 6.4525991678237915e-01</leafValues></_>
        <_>
          <internalNodes>
            0 -1 59 -17869545 -645708689 1115801117 -855194313
            -2021184845 -1056595631 -1660425461 -19207635</internalNodes>
          <leafValues>
            -6.7346525192260742e-01 7.5841748714447021e-01</leafValues></_>
        <_>
          <internalNodes>
            0 -1 57 -220728541 -1809975421 -2125467645 -817688314
            -1022917632 1100059792 -359537072 -473503641</internalNodes>
          <leafValues>
            -8.7007701396942139e-01 6.1846888065338135e-01</leafValues></_></weakClassifiers></_>
    <!-- stage 11 -->
    <_>
      <maxWeakCount>2</maxWeakCount>
      <stageThreshold>-1.8175625801086426e-01</stageThreshold>
      <weakClassifiers>
        <_>
          <internalNodes>
            0 -1 9 1753548015 -835981175 19514715 -358973109 -1876632705
            -719929069 1082712791 -108068208</internalNodes>
          <leafValues>
            -8.8505744934082031e-01 5.1794874668121338e-01</leafValues></_>
        <_>
          <internalNodes>
            0 -1 32 -922004097 -636872447 -510824097 -2833850 1493779673
            -628456783 -108457540 -4156792</internalNodes>
          <leafValues>
            -6.9970500469207764e-01 7.1269834041595459e-01</leafValues></_></weakClassifiers></_>
    <!-- stage 12 -->
    <_>
      <maxWeakCount>4</maxWeakCount>
      <stageThreshold>-2.4862614274024963e-01</stageThreshold>
      <weakClassifiers>
        <_>
          <internalNodes>
            0 -1 60 -141070475 1908654343 -2105048917 1435198219
            -804008663 -830356469 -1048575775 -1093943449</internalNodes>
          <leafValues>
            -7.4334138631820679e-01 6.1846154928207397e-01</leafValues></_>
        <_>
          <internalNodes>
            0 -1 12 -887176001 133940058 -1995332727 -1938652144
            -1039037505 -645298009 -587065216 -85985004</internalNodes>
          <leafValues>
            -7.0376771688461304e-01 6.5767669677734375e-01</leafValues></_>
        <_>
          <internalNodes>
            0 -1 19 -786721793 -1122888355 -729733862 -492899218
            159460381 -1676181110 1838621461 -298522360</internalNodes>
          <leafValues>
            -8.0805444717407227e-01 5.8480346202850342e-01</leafValues></_>
        <_>
          <internalNodes>
            0 -1 54 -1063831487 -753458744 -1857945265 1636100297
            -83303507 -963936246 -1414793066 -864599</internalNodes>
          <leafValues>
            -7.0744216442108154e-01 6.4509302377700806e-01</leafValues></_></weakClassifiers></_>
    <!-- stage 13 -->
    <_>
      <maxWeakCount>3</maxWeakCount>
      <stageThreshold>-1.0640386343002319e+00</stageThreshold>
      <weakClassifiers>
        <_>
          <internalNodes>
            0 -1 13 -937428801 -1940109225 -510422703 -824695289
            50943083 -644272111 196928035 -285504987</internalNodes>
          <leafValues>
            -7.9255318641662598e-01 5.3038674592971802e-01</leafValues></_>
        <_>
          <internalNodes>
            0 -1 33 -1861634577 -1634266965 826328988 -1110114031
            -1744659918 1384816795 -390493260 -1751144280</internalNodes>
          <leafValues>
            -7.8812575340270996e-01 5.4768753051757813e-01</leafValues></_>
        <_>
          <internalNodes>
            0 -1 34 704850993 377759991 -511389345 -1412039954
            -1685278651 -98529254 1447819169 -1349801585</internalNodes>
          <leafValues>
            -8.1900787353515625e-01 5.1664030551910400e-01</leafValues></_></weakClassifiers></_>
    <!-- stage 14 -->
    <_>
      <maxWeakCount>4</maxWeakCount>
      <stageThreshold>-1.5348832607269287e+00</stageThreshold>
      <weakClassifiers>
        <_>
          <internalNodes>
            0 -1 58 -440936525 -1064726399 -1874227198 -547169901
            578977940 579403922 -1031155455 -335806560</internalNodes>
          <leafValues>
            -7.8494626283645630e-01 5.0819671154022217e-01</leafValues></_>
        <_>
          <internalNodes>
            0 -1 21 -455088209 -414752681 -753720987 -310034429
            -905796519 -257941312 -620049657 -22828507</internalNodes>
          <leafValues>
            -6.5846860408782959e-01 6.5705406665802002e-01</leafValues></_>
        <_>
          <internalNodes>
            0 -1 40 -1140894413 -1936649507 -448724707 538363993
            -268373423 -1870364026 -58156763 -1685329517</internalNodes>
          <leafValues>
            -7.4946880340576172e-01 6.3516724109649658e-01</leafValues></_>
        <_>
          <internalNodes>
            0 -1 49 -1449134796 558093327 1241780233 -1639874359
            178966673 1759674506 1796245696 -678166653</internalNodes>
          <leafValues>
            -7.2663569450378418e-01 5.4050135612487793e-01</leafValues></_></weakClassifiers></_>
    <!-- stage 15 -->
    <_>
      <maxWeakCount>3</maxWeakCount>
      <stageThreshold>-9.3440604209899902e-01</stageThreshold>
      <weakClassifiers>
        <_>
          <internalNodes>
            0 -1 2 -1361919489 -1202253553 -1844890849 -1253068
            -1568439361 -197799807 970654979 -307607551</internalNodes>
          <leafValues>
            -8.3333331346511841e-01 6.0451978445053101e-01</leafValues></_>
        <_>
          <internalNodes>
            0 -1 46 -1765190915 -1785885419 472456607 -579303397
            -1463036651 -1458137447 -1104418080 -542996931</internalNodes>
          <leafValues>
            -7.6088774204254150e-01 6.4738452434539795e-01</leafValues></_>
        <_>
          <internalNodes>
            0 -1 1 -1513271841 -820366079 1976122743 -268335069
            -2034519633 -217004873 -1741968447 -152829439</internalNodes>
          <leafValues>
            -7.2388124465942383e-01 6.5981501340866089e-01</leafValues></_></weakClassifiers></_>
    <!-- stage 16 -->
    <_>
      <maxWeakCount>3</maxWeakCount>
      <stageThreshold>-8.3929872512817383e-01</stageThreshold>
      <weakClassifiers>
        <_>
          <internalNodes>
            0 -1 23 2077446623 1476440209 -635318916 -12837154
            -1190526176 -357136233 713644044 -21460568</internalNodes>
          <leafValues>
            -7.1571069955825806e-01 5.3709197044372559e-01</leafValues></_>
        <_>
          <internalNodes>
            0 -1 27 -1393893329 -738930211 -2095984436 -1621597862
            -1807688273 -1049770365 -1610054469 -125521807</internalNodes>
          <leafValues>
            -7.1306300163269043e-01 5.7809066772460938e-01</leafValues></_>
        <_>
          <internalNodes>
            0 -1 42 386220543 230883399 470091192 -1860677632
            -1060904909 1620673220 -626276068 -339237106</internalNodes>
          <leafValues>
            -6.6332769393920898e-01 6.0038220882415771e-01</leafValues></_></weakClassifiers></_>
    <!-- stage 17 -->
    <_>
      <maxWeakCount>2</maxWeakCount>
      <stageThreshold>-2.9892536997795105e-01</stageThreshold>
      <weakClassifiers>
        <_>
          <internalNodes>
            0 -1 4 -1493784437 -1541285487 -1090318001 -271214183
            -200750853 -233273344 -1902461278 -67336702</internalNodes>
          <leafValues>
            -8.2808023691177368e-01 4.7043702006340027e-01</leafValues></_>
        <_>
          <internalNodes>
            0 -1 55 -144212450 -743189494 -2067234775 -313818667
            -1454802365 -905379677 -123746093 -1104217765</internalNodes>
          <leafValues>
            -7.6936239004135132e-01 5.8313381671905518e-01</leafValues></_></weakClassifiers></_>
    <!-- stage 18 -->
    <_>
      <maxWeakCount>4</maxWeakCount>
      <stageThreshold>-4.6415978670120239e-01</stageThreshold>
      <weakClassifiers>
        <_>
          <internalNodes>
            0 -1 50 1909577631 -854468215 -1828634555 -778499571
            -905851427 445098520 1227074260 -2492243</internalNodes>
          <leafValues>
            -6.6743648052215576e-01 6.0000002384185791e-01</leafValues></_>
        <_>
          <internalNodes>
            0 -1 20 1377824253 -828878500 1897406781 -825961106
            -2130549121 -116185087 553947171 -65734300</internalNodes>
          <leafValues>
            -8.0243289470672607e-01 4.7514256834983826e-01</leafValues></_>
        <_>
          <internalNodes>
            0 -1 48 -649113849 -1412918829 -268431241 -560857023
            -992339198 -1599553407 -861265528 -415858239</internalNodes>
          <leafValues>
            -7.6657944917678833e-01 4.8900681734085083e-01</leafValues></_>
        <_>
          <internalNodes>
            0 -1 16 -331494025 -380845805 -469680099 -32472830 989872708
            -726445949 -2112851711 -102139263</internalNodes>
          <leafValues>
            -7.1028333902359009e-01 5.1670277118682861e-01</leafValues></_></weakClassifiers></_>
    <!-- stage 19 -->
    <_>
      <maxWeakCount>5</maxWeakCount>
      <stageThreshold>-2.1134941279888153e-01</stageThreshold>
      <weakClassifiers>
        <_>
          <internalNodes>
            0 -1 36 -1056782586 -113291215 -2146430635 -669675456
            -2010873697 -1476386392 -2012722806 -1340440447</internalNodes>
          <leafValues>
            -6.9747900962829590e-01 3.7532809376716614e-01</leafValues></_>
        <_>
          <internalNodes>
            0 -1 14 -833707790 420749319 286261251 -557842431 1627980183
            818610177 -620755952 -88349758</internalNodes>
          <leafValues>
            -7.7676361799240112e-01 3.6594653129577637e-01</leafValues></_>
        <_>
          <internalNodes>
            0 -1 39 -486522628 -719842688 1082392984 -1925054452
            134218180 -1164701560 402760700 318015820</internalNodes>
          <leafValues>
            -8.0788499116897583e-01 3.2918965816497803e-01</leafValues></_>
        <_>
          <internalNodes>
            0 -1 62 1377294160 88735769 -2147483637 151196042 27365444
            -2147483646 2236588 839037570</internalNodes>
          <leafValues>
            -7.0729732513427734e-01 4.3878561258316040e-01</leafValues></_>
        <_>
          <internalNodes>
            0 -1 38 -671034048 -1710620158 621052291 1783250946
            -805295989 443551744 -1572298167 -741957245</internalNodes>
          <leafValues>
            -5.7451635599136353e-01 6.0298359394073486e-01</leafValues></_></weakClassifiers></_></stages>
  <features>
    <_>
      <rect>
        0 0 2 6</rect></_>
    <_>
      <rect>
        0 0 3 2</rect></_>
    <_>
      <rect>
        0 0 3 5</rect></_>
    <_>
      <rect>
        0 0 4 1</rect></_>
    <_>
      <rect>
        0 0 5 2</rect></_>
    <_>
      <rect>
        0 0 5 4</rect></_>
    <_>
      <rect>
        0 0 6 4</rect></_>
    <_>
      <rect>
        0 0 7 4</rect></_>
    <_>
      <rect>
        0 0 7 7</rect></_>
    <_>
      <rect>
        0 1 4 2</rect></_>
    <_>
      <rect>
        0 1 7 7</rect></_>
    <_>
      <rect>
        0 2 4 4</rect></_>
    <_>
      <rect>
        0 3 2 2</rect></_>
    <_>
      <rect>
        0 3 3 3</rect></_>
    <_>
      <rect>
        0 3 4 5</rect></_>
    <_>
      <rect>
        0 5 2 1</rect></_>
    <_>
      <rect>
        0 5 3 3</rect></_>
    <_>
      <rect>
        0 7 7 5</rect></_>
    <_>
      <rect>
        0 12 2 3</rect></_>
    <_>
      <rect>
        0 13 4 3</rect></_>
    <_>
      <rect>
        0 14 2 2</rect></_>
    <_>
      <rect>
        1 0 4 3</rect></_>
    <_>
      <rect>
        1 0 7 1</rect></_>
    <_>
      <rect>
        1 16 5 2</rect></_>
    <_>
      <rect>
        1 19 7 1</rect></_>
    <_>
      <rect>
        2 0 4 1</rect></_>
    <_>
      <rect>
        2 14 1 1</rect></_>
    <_>
      <rect>
        3 0 6 4</rect></_>
    <_>
      <rect>
        3 10 3 3</rect></_>
    <_>
      <rect>
        4 0 6 1</rect></_>
    <_>
      <rect>
        4 1 2 1</rect></_>
    <_>
      <rect>
        4 1 6 7</rect></_>
    <_>
      <rect>
        4 13 5 3</rect></_>
    <_>
      <rect>
        4 19 6 1</rect></_>
    <_>
      <rect>
        5 1 3 4</rect></_>
    <_>
      <rect>
        6 0 4 3</rect></_>
    <_>
      <rect>
        7 0 5 1</rect></_>
    <_>
      <rect>
        7 1 5 7</rect></_>
    <_>
      <rect>
        7 6 1 1</rect></_>
    <_>
      <rect>
        7 19 2 1</rect></_>
    <_>
      <rect>
        8 4 4 3</rect></_>
    <_>
      <rect>
        10 1 4 7</rect></_>
    <_>
      <rect>
        10 13 4 3</rect></_>
    <_>
      <rect>
        11 0 1 1</rect></_>
    <_>
      <rect>
        11 0 3 6</rect></_>
    <_>
      <rect>
        11 16 3 2</rect></_>
    <_>
      <rect>
        12 16 3 2</rect></_>
    <_>
      <rect>
        13 0 3 1</rect></_>
    <_>
      <rect>
        13 1 3 4</rect></_>
    <_>
      <rect>
        13 8 3 4</rect></_>
    <_>
      <rect>
        13 15 3 2</rect></_>
    <_>
      <rect>
        14 0 1 1</rect></_>
    <_>
      <rect>
        14 1 2 1</rect></_>
    <_>
      <rect>
        15 0 2 2</rect></_>
    <_>
      <rect>
        16 0 1 2</rect></_>
    <_>
      <rect>
        16 0 2 3</rect></_>
    <_>
      <rect>
        16 0 2 7</rect></_>
    <_>
      <rect>
        16 9 2 2</rect></_>
    <_>
      <rect>
        16 11 2 3</rect></_>
    <_>
      <rect>
        18 0 1 3</rect></_>
    <_>
      <rect>
        19 1 1 6</rect></_>
    <_>
      <rect>
        19 5 1 1</rect></_>
    <_>
      <rect>
        19 5 1 4</rect></_>
    <_>
      <rect>
        19 7 1 1</rect></_>
    <_>
      <rect>
        19 9 1 1</rect></_></features></cascade>
</opencv_storage>
